elements: [Al, N]
E0: [0, 0]
deltaSplineBins: 0.001
embeddings:
  0: {ndensity: 2, FS_parameters: [1, 1, 1, 0.5], npoti: FinnisSinclairShiftedScaled, rho_core_cutoff: 100000, drho_core_cutoff: 250}
  1: {ndensity: 2, FS_parameters: [1, 1, 1, 0.5], npoti: FinnisSinclairShiftedScaled, rho_core_cutoff: 100000, drho_core_cutoff: 250}
bonds:
  [0, 0]: {nradmax: 6, lmax: 3, nradbasemax: 14, radbasename: SBessel, radparameters: [5.25], radcoefficients: [[[1.0494075876663829, -0.05857027819677034, -0.0053051495271482898, 0.10155339958603679, -0.014179383330574492, 0.016113338656973869, 0.028722344737328348, -0.064024480191316527, 0.053416954094352799, -0.0043372533503212019, 0.0044278634978119312, 0.0039764442898774111, -0.01071416029917165, 0.0013813188904210163], [1.0196912473648987, 0.0019199551209557715, -0.014104590322494453, 0.020888054499082723, 0.022329691280872581, -0.019845667465284357, -0.0027938795447518291, 0.022414253303336049, -0.010799764270550205, -0.0076094632145995069, 0.016008099596547542, -0.0099592989219844073, 0.0014857633944310989, 0.0026206876021205284], [0.99903014674584634, 0.012379091904061461, -0.025650872255957372, -0.048282156320737298, 0.01692957441407798, 0.0040516283725641131, -0.045477816977916793, 0.025826969282113574, 0.014010392806347385, -0.048048667752240634, 0.036519271214114656, -0.017258700982154263, -0.0068811129797971575, 0.0083373618649831126], [0.99902922932650695, -0.0017440150786037329, 0.017226524362136428, 0.04358804191318448, 0.022412534255125426, -0.02387382176274926, -0.0062698588132744986, 0.040853706338596786, 0.013581106253208929, -0.025996353555320102, 0.021153717737085243, 0.036605563093651074, -0.059390882928439553, 0.026892684607573214]], [[-0.041203458216727835, 0.97372573727543688, -0.051102535097712828, -0.052854447632845622, 0.069457845327202436, 0.071140712890126787, -0.029965928810975873, -0.015641699277529664, 0.012038225926181373, 0.011991270771308123, -0.0025927457350002348, 0.018847332717494121, -0.029525940992656475, 0.034520669574700708], [-0.010732960021021207, 1.0019755922794691, -0.0081908586241163477, -0.039374894847347394, -0.025876644374849742, -0.0089730050556206167, -0.0027735847521002657, 0.018941340434679498, -0.0091968400299640915, -0.017799059332755354, 0.040622307813142827, -0.0090827130779910052, -0.0094584221346941822, 0.013325779763030119], [-0.0012254843529799285, 1.0045135000457635, 0.00082323918744741948, 0.0095928485117837657, 0.051123435002474703, 0.042421100359854282, -0.023449976308525189, -0.021722394974210434, 0.016180952487975023, 0.0016705882815534951, 0.017447642903804655, 0.028252980824483145, -0.030085080143104913, 0.022965004118804942], [-0.0036183216114251192, 1.0003393657914545, -0.00090400673759283593, 0.024096771002742795, 0.093380555060849912, 0.08003329764378872, -0.033591116412478958, -0.038740169415123121, 0.038987007840687572, -0.0019874702719800737, -0.026422513626861936, 0.040064975629598432, -0.015296851777134758, 0.012770712800298099]], [[-0.013381847804623167, -0.027763201638584228, 0.97117233336873665, 0.0059649383941040007, 0.035033685666560843, -0.00046912818398639651, -0.032073094511653952, -0.016399549670091818, -0.015361384342134451, -0.017367885746442508, 0.002295684553917291, 0.022313667322566094, -0.017844614716091854, 0.010796807715064432], [-0.0042660358920981953, -0.0027103420318907437, 0.9852385896122452, -0.018066451339329315, 0.01924397143730958, 0.024293004338315508, -0.0087306282392354845, 0.025188045328588586, 0.054037107239650974, 0.0047112737876583667, 0.033278759871663205, 0.054336535422245424, -0.087582176328147326, 0.062345876374415216], [0.0011412897244502595, 0.0065034954730264685, 0.9972830417774774, -0.014463275189600704, -0.0011243844796528012, 0.0063473201701654365, 0.0078735779034524132, 0.038260786327618423, 0.019806878348569444, -0.06415458191269989, -0.044509768222618373, 0.039135169609486008, -0.012254188286797502, 0.0039022210796464344], [0.0072177759312318747, 0.0098216945774832979, 0.99664981062260927, -0.026817913593772134, -0.026456442061816937, 0.014697226808881483, 0.042392222925072914, 0.027910660477758073, 0.02625270214730941, 0.019244614016648259, -0.03671916764363102, -0.016082232922398659, 0.080504144642868175, -0.010992563583449057]], [[-0.033689141429822766, -0.040608667256880185, -0.013348873461838939, 0.97750514756188767, -0.046757952051168117, -0.035394879970325942, -0.045768373529368536, -0.040566862643810202, 0.03312683157356907, 0.026962007643889965, -0.039971971993360805, -0.0092295219180132983, 0.021371497294718537, -0.042103617486071998], [0.0011405155735198871, -0.0023081030798380925, -0.0042834727351475704, 0.98974486022840291, -0.02649886253398023, -0.0095427390922753381, 0.04986001145753851, 0.06317149757799434, 0.022483903771814903, 0.026750293197858228, 0.043576890740364249, 0.0040439287124501211, 0.001631714246839072, 0.012126014285907677], [-0.0013171970635498856, -0.0023869136118564683, 0.0010087054704343758, 0.99377427739840662, -0.023315839302114269, -0.0015820181531462059, 0.04985173507146063, 0.046821721341322446, 0.0026373273649331975, -0.0012206767797489017, 0.0069015171530217205, -0.0053290062569988049, 0.0063502068256693816, -0.029032820413775584], [0.0033263801927508351, 0.0033330346094813199, -0.001158851676933006, 0.99908085216621911, 0.0090162365878937566, 0.017187071751515078, 0.011351019314600766, 0.0036107757312448942, 0.0089998192856148955, 0.0050801470551188402, -0.026497845592917249, -0.044167395788566363, -0.020340778029885851, -0.013659938886163139]], [[0.0038919766290766104, 0.015282340247864849, 0.0041815944264542403, -0.013222635480250603, 1.0039805827581165, 0.02445751748508174, 0.016763570748185203, -0.00097671185463534004, 0.010808782038304135, 0.035078954056464537, -0.014512268618259317, -0.034104311296683107, 0.01926527417864372, -0.028836382638905776], [0.00018544788039541384, -0.00030728830122355409, -0.0022472559452950186, -0.0062378193452358698, 0.99134922632404687, -0.0018178094172773605, 0.0087180891486594216, 0.010342954519960205, 0.01982124770133073, 0.048637306747063402, 0.045813283904687856, -0.0044500455123506946, -0.019687297142023722, -0.001810946065635235], [-0.0016919394100544079, 0.0019844200966518989, 0.0072277087329565941, 0.0050313506161721267, 0.99324747927247681, -0.023633069444778533, -0.033766444776881455, -0.0295717495094329, -0.0029033769426086782, 0.04325167082968686, 0.038070744818583878, -0.043825517604964358, -0.05960293689668153, -0.0099963241939441585], [0.00051607896185663156, 0.00036724949766136496, -0.0033572755531764585, -0.0087318393627262032, 0.99803400706143619, 0.021843882153141495, 0.032184536930039906, 0.012022149690321594, 0.012298250208955096, 0.046069030251158348, 0.01947478056716314, -0.055396921442545238, -0.018795550165952104, 0.073927677694439545]], [[0.0080564040381913421, 0.006167842320766284, 0.000345415596087852, 0.0062993872296766579, 0.0073734586058513815, 0.99059526111532525, -0.016256640396667778, -1.8823840950317906e-05, 0.0084070269606673718, 0.017245266844540703, 0.048305669621027739, 0.020890229284359681, -0.049076891032890695, -0.013320475273798135], [0.0001019206249156804, 0.00092964228072185782, 0.00063304595024273698, 2.2467828700207326e-05, -0.00031888489453083625, 0.99727285605536098, -0.0017996375931654146, 0.0028614686777654573, -0.0022900288814978074, -0.010632881296006607, -0.0030122876937722768, 0.0085599465622930183, 0.0044667312812952664, -0.023565420687116267], [0.00016727242033271765, -0.00036784638269249078, 0.0012590152841190018, 0.0008454977854599517, -0.0056867104932599635, 0.99531958277728738, 0.0059410771145840535, 0.0058149982015790764, 0.0013720186725457557, 0.013425451131293665, 0.023311292508100254, 0.013279389913071987, -0.0012934945972379399, -0.028196348437924491], [0.00058905416593935675, 0.00026769594508511301, -0.00060953036901554116, -0.00039092381436781835, -0.00024521629678159553, 0.99799795546886816, -0.0022434674796044242, 0.0042354627199225562, 0.01204073863537408, 0.007640900167191678, -0.0052447042914085234, -0.0063828698686803657, -0.0019007258627625901, -0.015830761696350244]]], prehc: 0, lambdahc: 0, rcut: 7, dcut: 0.01, rcut_in: 0, dcut_in: 0, inner_cutoff_type: distance}
  [0, 1]: {nradmax: 6, lmax: 3, nradbasemax: 11, radbasename: SBessel, radparameters: [5.25], radcoefficients: [[[0.84260821432880817, 0.16170767436742686, -0.31776749077355854, 0.45040380309584016, -0.43933867515896496, 0.31076776182268473, -0.18807512349765937, 0.096558807314728115, -0.038354076260289291, 0.014928536073436631, -0.0036628466675458094], [1.1526736660777233, -0.082486012331650954, 0.0070218806092698129, 0.058074533310503093, 0.02196410440874251, -0.11442506218753895, 0.14683702839207574, -0.11411676854710223, 0.078061667803493009, -0.042299885662109904, 0.016964597282270941], [1.0219815173396898, -0.07931772306640561, -0.0099518880012660141, 0.045513770691936392, -0.079482302381453013, 0.031294417486157813, 0.071148138708306677, -0.059658143790215584, 0.046298142745903687, -0.004248320101530507, 0.0062721397479180169], [0.96408956162616355, 0.014214016304231289, -0.058979058457499275, 0.11333826211340341, 0.036696722658315098, -0.11839466079954007, 0.12750695461911057, 0.0042879922111371061, -0.022807047275754916, 0.10140592537655747, -0.065735230337367945]], [[0.099476842129388302, 0.95208289541324664, -0.10005481481078689, 0.028446228008766235, 0.2111223200019407, -0.24675163770874881, 0.23111984306839325, -0.18783323817526795, 0.12918537774473854, -0.064880843957535947, 0.038987619055041139], [-0.023544365093580856, 0.99390700840183943, -0.057669774832648457, 0.18227118947307169, -0.20348772474988286, 0.055771277383107651, 0.11762841189336694, -0.13870449644044153, 0.14216863590887457, -0.086792763390517544, 0.036783031940796566], [-0.024077400447251714, 1.0978748052560496, -0.023371530224651205, -0.057919029413240397, 0.043506322315583941, 0.064749074140580093, -0.018020587540983117, 0.0097585630012396851, 0.049653119960619982, -0.046747896901863158, 0.037673243516980343], [-0.012450355759150707, 1.0176510908311696, -0.036302900376852673, 0.029333370157884918, 0.13961309644487196, -0.0040141799201456642, -0.04245737186834278, 0.054018284030846964, 0.056883444929941213, -0.02222060549165749, -0.027454020842346268]], [[0.088557208038745727, 0.017489745801897202, 0.97454459337635269, -0.004229116192128058, 0.096342115131121175, -0.0063583069314162967, 0.047284503232814169, 0.064371665868735731, -0.046741394775791999, 0.054766167323455212, 0.014734615474289869], [0.011694629184908422, -0.027233411946029039, 1.0107862280009214, -0.17710900919346298, 0.0036088188414889104, 0.071922819825514628, -0.0035906723351763611, 0.025737943080562611, -0.0046192630293353763, 0.022111637915812537, -0.0070636539954358896], [0.0032148028461403432, -0.002533100484442251, 1.0145686655979465, -0.057371548547181801, -0.059550800498622158, 0.034257273566243515, 0.031639714218501619, 0.038101764458434245, -0.031379435660224962, 0.018084329616310492, -0.0028507973219089899], [0.03383617824585182, -0.031416891736705393, 0.98433474586127323, -0.11383455856003334, 0.028234364779510218, 0.18679754250410213, -0.098814163629743351, 0.033384767614550281, 0.098755151590058904, -0.037345937909936448, 0.0022922168846168586]], [[0.060876092267887594, 0.064853285729073243, -0.0134631795141654, 1.0217804527894483, -0.073986185769635004, -0.0041139874187689357, 0.049864211831304475, 0.062130064001734854, -0.045819509102658952, 0.053336446378955828, 0.061626173591151315], [-0.0003855947543708329, -0.0028826840840928914, -0.00012959314951815397, 0.97938314534031223, -0.1887891015945162, -0.038774376892176943, -0.031196868886181447, -0.10729425839771024, 0.16808534444048873, -0.089644080913872756, 0.035958618760323656], [-0.0020740024642532428, 0.010943952828354402, -0.00096403335402738704, 1.0011347975661018, -0.027347152379302568, -0.041228521221598854, -0.0041949924111687308, -0.043321673728125711, -0.043987084400699011, 0.012717743601019679, -0.053845532433580971], [0, 0, 0, 1, 0, 0, 0, 0, 0, 0, 0]], [[-0.010561089527157893, -0.014468767549525972, -0.012688441474869496, -0.040706383972723539, 0.99110275897991051, -0.061602211415188797, 0.031087275487131159, 0.12409356546871808, -0.07517256790497967, 0.05170014020688804, 0.097961950571838347], [-0.0014316804132997686, -0.0021392736905814147, 0.006981811801185853, 0.00011479355236604475, 0.99329054420732832, -0.015057361939004286, -0.033046231404390121, -0.033661320752623763, 0.016281748217069673, -0.023576725490437621, -0.028548123132631241], [0.0027093362028180927, -0.0052151174931181852, 0.0029150190472582867, -0.004547614448165203, 0.98932114754462885, -0.010942027272188475, -0.0080661446077617514, 0.046858227601701212, 0.023487729118465438, -0.049922475947397529, 0.022737691694155387], [0, 0, 0, 0, 1, 0, 0, 0, 0, 0, 0]], [[-0.0041832832411730046, 0.00090375675097540504, 0.0067412394538571433, 0.019986697166658757, -0.029278203947947268, 1.0004798998900077, -0.059957581296854467, -0.054538221830810509, 0.013277186645798626, -0.024560868140774249, 0.031435032079276198], [-0.0010212270804126175, -0.0034590927012785318, 0.0031834631076516867, 0.00022321289693314628, -0.0072095538137732958, 0.99996902221669404, -0.040740907782555388, -0.04272505839501068, -0.0025517666152151106, -0.025427710069269964, 0.033290857665171356], [0, 0, 0, 0, 0, 1, 0, 0, 0, 0, 0], [0, 0, 0, 0, 0, 1, 0, 0, 0, 0, 0]]], prehc: 0, lambdahc: 0, rcut: 7, dcut: 0.01, rcut_in: 0, dcut_in: 0, inner_cutoff_type: distance}
  [1, 0]: {nradmax: 6, lmax: 3, nradbasemax: 11, radbasename: SBessel, radparameters: [5.25], radcoefficients: [[[0.84260821432880817, 0.16170767436742686, -0.31776749077355854, 0.45040380309584016, -0.43933867515896496, 0.31076776182268473, -0.18807512349765937, 0.096558807314728115, -0.038354076260289291, 0.014928536073436631, -0.0036628466675458094], [1.1526736660777233, -0.082486012331650954, 0.0070218806092698129, 0.058074533310503093, 0.02196410440874251, -0.11442506218753895, 0.14683702839207574, -0.11411676854710223, 0.078061667803493009, -0.042299885662109904, 0.016964597282270941], [1.0219815173396898, -0.07931772306640561, -0.0099518880012660141, 0.045513770691936392, -0.079482302381453013, 0.031294417486157813, 0.071148138708306677, -0.059658143790215584, 0.046298142745903687, -0.004248320101530507, 0.0062721397479180169], [0.96408956162616355, 0.014214016304231289, -0.058979058457499275, 0.11333826211340341, 0.036696722658315098, -0.11839466079954007, 0.12750695461911057, 0.0042879922111371061, -0.022807047275754916, 0.10140592537655747, -0.065735230337367945]], [[0.099476842129388302, 0.95208289541324664, -0.10005481481078689, 0.028446228008766235, 0.2111223200019407, -0.24675163770874881, 0.23111984306839325, -0.18783323817526795, 0.12918537774473854, -0.064880843957535947, 0.038987619055041139], [-0.023544365093580856, 0.99390700840183943, -0.057669774832648457, 0.18227118947307169, -0.20348772474988286, 0.055771277383107651, 0.11762841189336694, -0.13870449644044153, 0.14216863590887457, -0.086792763390517544, 0.036783031940796566], [-0.024077400447251714, 1.0978748052560496, -0.023371530224651205, -0.057919029413240397, 0.043506322315583941, 0.064749074140580093, -0.018020587540983117, 0.0097585630012396851, 0.049653119960619982, -0.046747896901863158, 0.037673243516980343], [-0.012450355759150707, 1.0176510908311696, -0.036302900376852673, 0.029333370157884918, 0.13961309644487196, -0.0040141799201456642, -0.04245737186834278, 0.054018284030846964, 0.056883444929941213, -0.02222060549165749, -0.027454020842346268]], [[0.088557208038745727, 0.017489745801897202, 0.97454459337635269, -0.004229116192128058, 0.096342115131121175, -0.0063583069314162967, 0.047284503232814169, 0.064371665868735731, -0.046741394775791999, 0.054766167323455212, 0.014734615474289869], [0.011694629184908422, -0.027233411946029039, 1.0107862280009214, -0.17710900919346298, 0.0036088188414889104, 0.071922819825514628, -0.0035906723351763611, 0.025737943080562611, -0.0046192630293353763, 0.022111637915812537, -0.0070636539954358896], [0.0032148028461403432, -0.002533100484442251, 1.0145686655979465, -0.057371548547181801, -0.059550800498622158, 0.034257273566243515, 0.031639714218501619, 0.038101764458434245, -0.031379435660224962, 0.018084329616310492, -0.0028507973219089899], [0.03383617824585182, -0.031416891736705393, 0.98433474586127323, -0.11383455856003334, 0.028234364779510218, 0.18679754250410213, -0.098814163629743351, 0.033384767614550281, 0.098755151590058904, -0.037345937909936448, 0.0022922168846168586]], [[0.060876092267887594, 0.064853285729073243, -0.0134631795141654, 1.0217804527894483, -0.073986185769635004, -0.0041139874187689357, 0.049864211831304475, 0.062130064001734854, -0.045819509102658952, 0.053336446378955828, 0.061626173591151315], [-0.0003855947543708329, -0.0028826840840928914, -0.00012959314951815397, 0.97938314534031223, -0.1887891015945162, -0.038774376892176943, -0.031196868886181447, -0.10729425839771024, 0.16808534444048873, -0.089644080913872756, 0.035958618760323656], [-0.0020740024642532428, 0.010943952828354402, -0.00096403335402738704, 1.0011347975661018, -0.027347152379302568, -0.041228521221598854, -0.0041949924111687308, -0.043321673728125711, -0.043987084400699011, 0.012717743601019679, -0.053845532433580971], [0, 0, 0, 1, 0, 0, 0, 0, 0, 0, 0]], [[-0.010561089527157893, -0.014468767549525972, -0.012688441474869496, -0.040706383972723539, 0.99110275897991051, -0.061602211415188797, 0.031087275487131159, 0.12409356546871808, -0.07517256790497967, 0.05170014020688804, 0.097961950571838347], [-0.0014316804132997686, -0.0021392736905814147, 0.006981811801185853, 0.00011479355236604475, 0.99329054420732832, -0.015057361939004286, -0.033046231404390121, -0.033661320752623763, 0.016281748217069673, -0.023576725490437621, -0.028548123132631241], [0.0027093362028180927, -0.0052151174931181852, 0.0029150190472582867, -0.004547614448165203, 0.98932114754462885, -0.010942027272188475, -0.0080661446077617514, 0.046858227601701212, 0.023487729118465438, -0.049922475947397529, 0.022737691694155387], [0, 0, 0, 0, 1, 0, 0, 0, 0, 0, 0]], [[-0.0041832832411730046, 0.00090375675097540504, 0.0067412394538571433, 0.019986697166658757, -0.029278203947947268, 1.0004798998900077, -0.059957581296854467, -0.054538221830810509, 0.013277186645798626, -0.024560868140774249, 0.031435032079276198], [-0.0010212270804126175, -0.0034590927012785318, 0.0031834631076516867, 0.00022321289693314628, -0.0072095538137732958, 0.99996902221669404, -0.040740907782555388, -0.04272505839501068, -0.0025517666152151106, -0.025427710069269964, 0.033290857665171356], [0, 0, 0, 0, 0, 1, 0, 0, 0, 0, 0], [0, 0, 0, 0, 0, 1, 0, 0, 0, 0, 0]]], prehc: 0, lambdahc: 0, rcut: 7, dcut: 0.01, rcut_in: 0, dcut_in: 0, inner_cutoff_type: distance}
  [1, 1]: {nradmax: 6, lmax: 3, nradbasemax: 14, radbasename: SBessel, radparameters: [5.25], radcoefficients: [[[1.0705315351157825, -0.064666522044084546, 0.031205893571063483, 0.14694458735997551, -0.074630944468498467, -0.0062727515840763914, 0.062300260789286396, -0.077635124291127636, 0.071294762651393895, -0.03680103060143302, 0.015085739503220799, 0.00066583179469477144, -0.004082987751337204, 0.00059935417260114352], [1.0736529127853431, -0.012426381286926162, -0.020067210487609413, 0.13395148190519368, 0.051112383750330177, -0.071434415398825279, 0.049728701085717933, 0.034989456745808285, -0.048068713668200896, 0.03367649258121537, -0.01990376047528172, -0.0011964359996015656, 0.01368073336807008, -0.011596742227019742], [1.019296139268558, 0.009132778837292686, -0.014996631343640312, 0.0033227731574872643, 0.040250435562964079, 0.038918697849350717, 0.00780506637431064, -0.0074240669968721274, -0.00073087587343135174, -0.0099735437500661946, -0.018531472234524279, 0.012594098436891511, 0.0022927318118678703, -0.009222455560973751], [0.99929143259184328, -0.036885290036655617, 0.023584706342864047, 0.13450839186665423, 0.026174934169617053, -0.13792432443642749, -0.049241120309634019, 0.058710578969900264, 0.0056599839471649805, 0.0014906973122049551, 0.017370679494413156, -0.013263905778885785, 0.023140074887103727, -0.017819833743914396]], [[0.045021026056172871, 1.0401200670694943, -0.021350743681795833, -0.00079301087505657388, 0.029115880140847712, -0.041481818287941313, -0.018311379980614724, 0.049062537624730035, -0.012922558137355437, -0.0091619196153755814, 0.0048976636992335417, 0.006422174552217488, -0.012023997127273995, 0.00023439742455155527], [-0.0072140207043044158, 0.99787292429360264, 0.024979307251900146, 0.014594963341808423, -0.053962127101320437, -0.0568189993348618, 0.041337581197129367, 0.065311056448939142, -0.029036535967383707, -0.059240536259755401, 0.0012911198439419876, 0.0068756520530193228, -0.0043181166375229375, -0.013750221798489578], [-0.0033953827739397406, 0.99449478414761228, -0.0015840835307415605, -0.012225955646480238, -0.025385039515750166, 0.0077201384357021546, 0.031989510269799834, -0.01764269933876263, -0.033341693991583932, 0.023106802065845353, 0.01136073584196228, -0.028951450449464254, 0.01629180670831162, -0.0095888046768001223], [0.008153500702620298, 1.0120173225839764, -0.02457248057338297, -0.055461347698058633, -0.007655065690105314, 0.021799028579059826, -0.046104294893439278, -0.064587048529664459, 0.0071227706791986414, 0.0142314734011064, -0.012057357558324017, 0.0021799419847062921, -0.036159571530308139, -0.014015727337205415]], [[-0.065416341920249713, -0.074621758457824469, 0.93838402468038762, -0.054019027761215893, -0.02617623268164606, -0.045503812797185933, -0.025863927270588939, 0.067893382445171443, 0.041022887436392014, -0.027952319976143392, -0.013639271831394642, 0.017471902140284094, -0.020780576651240029, -0.00017980534025380929], [-0.0024768712801761087, -0.0081195222445743405, 0.98286300978635754, -0.018513415863033053, -0.031633224656218449, -0.076705822696482406, -0.077946698556188368, -0.0077806945569865232, 0.0081921269460502894, -0.029549475376033765, 0.011051193086562801, 0.045401335740141845, -0.031219949838232924, 0.0040392699293844087], [-0.0047991673204592061, -0.0051776614780398283, 1.0059547601307681, 0.016652629011312162, 0.013995092809289952, 0.013925172873884836, 0.033801201998790206, 0.048809354753824329, 0.025891180387719898, -0.0085157762777832869, 0.0037515302591238828, 0.034363654405112243, -0.0050356315127790029, 0.0092302308907205675], [-0.0068958758209614404, 0.0011139668160326129, 0.99827760573254354, -0.027939036417157472, -0.022468516111417182, 0.0072500711684493407, 0.0037586303769798317, 0.0097653797949736002, 0.047525235827737593, 0.038900265248208409, 0.02277019984626515, 0.067200182402542927, 0.047952192846277629, -0.037423422658777995]], [[-0.048089332155752666, -0.058470981679926065, -0.02457371902350821, 0.94384953225598367, -0.10371177016246802, -0.050880570133338916, 6.2784410417834782e-05, 0.012052767976798544, 0.042104137787776143, -0.0084881407592589248, -0.051042379064603294, 0.003211403799556937, 0.014426688459483328, -0.013575648582322217], [0.0062817185778660332, 0.0021325714750295758, -0.0057445740949454618, 0.9862365127343049, -0.022690698683346881, 0.0062670624093198804, 0.054613019906857595, 0.033126682810564606, -0.008621112771808109, 0.026079263771375098, 0.028665264433157762, -0.046169794895939628, -0.028855275217968129, 0.019544834869977559], [-0.0034761681202484249, -0.0021541148349880747, 0.0042170564148899595, 0.99420884370026408, -0.016818089076885086, 0.012579529332808643, 0.031620123146548294, -0.010351558256721153, -0.020060117057360879, 0.032335846184685602, 0.033745598090532333, 0.0047258134150432937, 0.0033293354186465013, -0.053738131298877334], [0.0019152155561706471, 0.0027741807825424395, 0.0027451453033578233, 1.0004227836837953, -0.0030524888478948059, -0.001511113710406291, -0.0040341983104136949, -0.014785093788629392, -0.0042895683416456221, 0.026390301796127683, 0.026029861770928732, 0.0022437166232983268, 0.007637019589547306, 0.0046059101637527132]], [[-0.0072344546464471523, -0.0033269313197482196, 0.0014077995208003652, -0.0083088956604844208, 0.97729042982490477, -0.023756664688868983, -0.0038381318906948285, 0.0083315985627904279, 0.0043987589382009362, 0.0072702494930686652, -0.016197476331910807, -0.019382600073192861, 0.02463652176481777, -0.0068253776646906121], [0.003917560129774531, 0.0090128303066684904, 0.0027130988755513143, -0.013090471954860728, 0.98768092726542545, 0.0048616186182413, 0.011984584901187229, 0.0287863558203174, 0.079116468267000278, 0.098221122836589125, 0.043757942334442579, 0.0043135347928654234, 0.033236892736312584, 0.046261106285719999], [0.00087517174884614037, 0.0021009439303337415, 0.0012515791998084509, -0.0025247762182960009, 0.99144118801978298, -0.013770711265964025, -0.0068280979625013737, 0.014352351625303543, 0.024118887423811811, 0.0098730648571628155, 0.0065559849296049164, 0.031490368879967784, 0.03381441444359392, -0.012393990967582622], [-0.00025220501106781857, 0.00067228472684928312, 0.0011287043774885262, -0.00090653118224664564, 0.99851706509920546, -0.00031162881726321825, -0.0018768359193708547, 0.0035446609448317895, 0.01944101946167524, 0.020245022804489296, 0.0065823930441547491, 0.0084626974122916105, 0.0015286137353561519, -0.030345032605865629]], [[0.032745450298365335, 0.031861963672344243, 0.010380503764015215, 0.026647692395528416, 0.042243608345150591, 1.0012951636372702, -0.04682426604331244, -0.022173863292032116, 0.04193635661341976, 0.05566789141688816, 0.04120049781097268, 0.024852555169866154, -0.0025350270802666055, -0.0085788989562804296], [0.0016271211523139534, 0.0091837238674925652, 0.00070512342325284238, -0.011002256305694914, 0.0024550767810160726, 0.99266300929855955, -0.036400587494851602, 0.019620717479578539, 0.10812015115399731, 0.07747585455506753, -0.0062461005565179603, -0.022499393668936905, -0.017896642406666333, 0.002860973199313839], [-0.0001122118078921894, 0.0011318387495735001, 0.0010365384215950718, -0.0023924644555430924, -0.0037792120189757347, 0.99769623169894495, -0.004583964893285759, -0.0044457954518430046, 0.0083284204721470346, 0.019324618640269006, 0.014231217059946011, 0.010093407053455296, 0.014436067046145964, 0.0004807422588449363], [0.00037145619451768775, 0.00018691978735411194, -0.00031232810002852806, -0.00025849064020939982, -0.00049214640515558101, 0.99803361644812827, -0.0024008962349107671, 0.0010884040034340075, 0.0047295169964611554, 0.0019922596289294625, -0.0027052318062916808, -0.0016336129651486155, -0.0015395709583447376, -0.0044601181418327859]]], prehc: 0, lambdahc: 0, rcut: 7, dcut: 0.01, rcut_in: 0, dcut_in: 0, inner_cutoff_type: distance}
functions:
  0:
    - {mu0: 0, rank: 1, ndensity: 2, num_ms_combs: 1, mus: [0], ns: [1], ls: [0], ms_combs: [0], ctildes: [-0.024422789677246298, 0.00061263291452664029]}
    - {mu0: 0, rank: 1, ndensity: 2, num_ms_combs: 1, mus: [0], ns: [2], ls: [0], ms_combs: [0], ctildes: [-0.066429105670152477, -0.0018292498713179802]}
    - {mu0: 0, rank: 1, ndensity: 2, num_ms_combs: 1, mus: [0], ns: [3], ls: [0], ms_combs: [0], ctildes: [-0.0068882371749758751, -0.0008984976570218981]}
    - {mu0: 0, rank: 1, ndensity: 2, num_ms_combs: 1, mus: [0], ns: [4], ls: [0], ms_combs: [0], ctildes: [0.036762537979372498, 0.0030205247106300731]}
    - {mu0: 0, rank: 1, ndensity: 2, num_ms_combs: 1, mus: [0], ns: [5], ls: [0], ms_combs: [0], ctildes: [-0.067861817413033973, 0.0014520284583230466]}
    - {mu0: 0, rank: 1, ndensity: 2, num_ms_combs: 1, mus: [0], ns: [6], ls: [0], ms_combs: [0], ctildes: [-0.083907061393847016, -0.015698145202041189]}
    - {mu0: 0, rank: 1, ndensity: 2, num_ms_combs: 1, mus: [0], ns: [7], ls: [0], ms_combs: [0], ctildes: [0.040604403346045495, -0.043886502392329253]}
    - {mu0: 0, rank: 1, ndensity: 2, num_ms_combs: 1, mus: [0], ns: [8], ls: [0], ms_combs: [0], ctildes: [0.03435326278229002, -0.069430481371875241]}
    - {mu0: 0, rank: 1, ndensity: 2, num_ms_combs: 1, mus: [0], ns: [9], ls: [0], ms_combs: [0], ctildes: [-0.069020973528864341, -0.060719887860004713]}
    - {mu0: 0, rank: 1, ndensity: 2, num_ms_combs: 1, mus: [0], ns: [10], ls: [0], ms_combs: [0], ctildes: [-0.070693448847293061, -0.031380951594688608]}
    - {mu0: 0, rank: 1, ndensity: 2, num_ms_combs: 1, mus: [0], ns: [11], ls: [0], ms_combs: [0], ctildes: [0.012875424731393732, -0.0066215228506742371]}
    - {mu0: 0, rank: 1, ndensity: 2, num_ms_combs: 1, mus: [0], ns: [12], ls: [0], ms_combs: [0], ctildes: [-0.0045229614595313711, 0.023328209901843412]}
    - {mu0: 0, rank: 1, ndensity: 2, num_ms_combs: 1, mus: [0], ns: [13], ls: [0], ms_combs: [0], ctildes: [0.0012909516478812502, 0.058191908550398679]}
    - {mu0: 0, rank: 1, ndensity: 2, num_ms_combs: 1, mus: [0], ns: [14], ls: [0], ms_combs: [0], ctildes: [0.073333872212602874, 0.0010374428075854642]}
    - {mu0: 0, rank: 1, ndensity: 2, num_ms_combs: 1, mus: [1], ns: [1], ls: [0], ms_combs: [0], ctildes: [-0.042208063895218861, 0.00088401462463249224]}
    - {mu0: 0, rank: 1, ndensity: 2, num_ms_combs: 1, mus: [1], ns: [2], ls: [0], ms_combs: [0], ctildes: [-0.0229601285153796, 0.0025075989796962631]}
    - {mu0: 0, rank: 1, ndensity: 2, num_ms_combs: 1, mus: [1], ns: [3], ls: [0], ms_combs: [0], ctildes: [0.012157358899094264, 0.0011603335785763957]}
    - {mu0: 0, rank: 1, ndensity: 2, num_ms_combs: 1, mus: [1], ns: [4], ls: [0], ms_combs: [0], ctildes: [-0.071055452868562408, -0.0056659342594873518]}
    - {mu0: 0, rank: 1, ndensity: 2, num_ms_combs: 1, mus: [1], ns: [5], ls: [0], ms_combs: [0], ctildes: [0.0078030745637548572, 0.0074681478574060833]}
    - {mu0: 0, rank: 1, ndensity: 2, num_ms_combs: 1, mus: [1], ns: [6], ls: [0], ms_combs: [0], ctildes: [-0.059976769242390121, -0.017570568802543724]}
    - {mu0: 0, rank: 1, ndensity: 2, num_ms_combs: 1, mus: [1], ns: [7], ls: [0], ms_combs: [0], ctildes: [0.023564310330001767, -5.9550215645999495e-05]}
    - {mu0: 0, rank: 1, ndensity: 2, num_ms_combs: 1, mus: [1], ns: [8], ls: [0], ms_combs: [0], ctildes: [0.053010785844131311, -0.020426418224318781]}
    - {mu0: 0, rank: 1, ndensity: 2, num_ms_combs: 1, mus: [1], ns: [9], ls: [0], ms_combs: [0], ctildes: [-0.065200840829410994, -0.086419961871068721]}
    - {mu0: 0, rank: 1, ndensity: 2, num_ms_combs: 1, mus: [1], ns: [10], ls: [0], ms_combs: [0], ctildes: [0.068002906990939291, 0.0047077573594398736]}
    - {mu0: 0, rank: 1, ndensity: 2, num_ms_combs: 1, mus: [1], ns: [11], ls: [0], ms_combs: [0], ctildes: [-0.04136951387736771, 0.0082722003690221639]}
    - {mu0: 0, rank: 2, ndensity: 2, num_ms_combs: 1, mus: [0, 0], ns: [1, 1], ls: [0, 0], ms_combs: [0, 0], ctildes: [0.0089062939892494072, 0.005152211749368682]}
    - {mu0: 0, rank: 2, ndensity: 2, num_ms_combs: 2, mus: [0, 0], ns: [1, 1], ls: [1, 1], ms_combs: [0, 0, 1, -1], ctildes: [-0.0011804854488991427, -0.00059029343030050062, 0.0023609708977982849, 0.001180586860601001]}
    - {mu0: 0, rank: 2, ndensity: 2, num_ms_combs: 3, mus: [0, 0], ns: [1, 1], ls: [2, 2], ms_combs: [0, 0, 1, -1, 2, -2], ctildes: [-0.0034304760088837679, -0.0004838589185496788, 0.0068609520177675366, 0.0009677178370993577, -0.0068609520177675383, -0.00096771783709935803]}
    - {mu0: 0, rank: 2, ndensity: 2, num_ms_combs: 4, mus: [0, 0], ns: [1, 1], ls: [3, 3], ms_combs: [0, 0, 1, -1, 2, -2, 3, -3], ctildes: [5.039915527885888e-05, -9.5003054249201836e-05, -0.00010079831055771777, 0.0001900061084984037, 0.00010079831055771776, -0.00019000610849840367, -0.00010079831055771777, 0.0001900061084984037]}
    - {mu0: 0, rank: 2, ndensity: 2, num_ms_combs: 1, mus: [0, 0], ns: [1, 2], ls: [0, 0], ms_combs: [0, 0], ctildes: [-0.029908199456884076, 0.00090032761129556834]}
    - {mu0: 0, rank: 2, ndensity: 2, num_ms_combs: 2, mus: [0, 0], ns: [1, 2], ls: [1, 1], ms_combs: [0, 0, 1, -1], ctildes: [0.0037437479133113427, 0.00052572199903545705, -0.0074874958266226846, -0.0010514439980709139]}
    - {mu0: 0, rank: 2, ndensity: 2, num_ms_combs: 3, mus: [0, 0], ns: [1, 2], ls: [2, 2], ms_combs: [0, 0, 1, -1, 2, -2], ctildes: [0.0005721568586259519, 0.00053748634044394853, -0.0011443137172519038, -0.0010749726808878971, 0.0011443137172519042, 0.0010749726808878973]}
    - {mu0: 0, rank: 2, ndensity: 2, num_ms_combs: 4, mus: [0, 0], ns: [1, 2], ls: [3, 3], ms_combs: [0, 0, 1, -1, 2, -2, 3, -3], ctildes: [-0.0076233040763325219, -0.001032333762527758, 0.015246608152665047, 0.0020646675250555165, -0.015246608152665044, -0.0020646675250555161, 0.015246608152665047, 0.0020646675250555165]}
    - {mu0: 0, rank: 2, ndensity: 2, num_ms_combs: 1, mus: [0, 0], ns: [1, 3], ls: [0, 0], ms_combs: [0, 0], ctildes: [0.0029753466754011471, -0.00067902088695749932]}
    - {mu0: 0, rank: 2, ndensity: 2, num_ms_combs: 2, mus: [0, 0], ns: [1, 3], ls: [1, 1], ms_combs: [0, 0, 1, -1], ctildes: [0.0011182564049660923, 0.0016133559331907045, -0.0022365128099321842, -0.0032267118663814086]}
    - {mu0: 0, rank: 2, ndensity: 2, num_ms_combs: 3, mus: [0, 0], ns: [1, 3], ls: [2, 2], ms_combs: [0, 0, 1, -1, 2, -2], ctildes: [0.0073238139574833714, 0.0017255888858989075, -0.014647627914966745, -0.0034511777717978155, 0.014647627914966748, 0.0034511777717978163]}
    - {mu0: 0, rank: 2, ndensity: 2, num_ms_combs: 4, mus: [0, 0], ns: [1, 3], ls: [3, 3], ms_combs: [0, 0, 1, -1, 2, -2, 3, -3], ctildes: [0.0048135697368002425, -0.00088587801706023212, -0.0096271394736004868, 0.0017717560341204647, 0.0096271394736004851, -0.0017717560341204642, -0.0096271394736004868, 0.0017717560341204647]}
    - {mu0: 0, rank: 2, ndensity: 2, num_ms_combs: 1, mus: [0, 0], ns: [1, 4], ls: [0, 0], ms_combs: [0, 0], ctildes: [0.036903020172670734, 0.010948994074405055]}
    - {mu0: 0, rank: 2, ndensity: 2, num_ms_combs: 2, mus: [0, 0], ns: [1, 4], ls: [1, 1], ms_combs: [0, 0, 1, -1], ctildes: [-0.0057993132148450345, -0.0012311978642470397, 0.011598626429690066, 0.0024623957284940789]}
    - {mu0: 0, rank: 2, ndensity: 2, num_ms_combs: 3, mus: [0, 0], ns: [1, 4], ls: [2, 2], ms_combs: [0, 0, 1, -1, 2, -2], ctildes: [0.0039457850981019149, -0.0013852244662314009, -0.0078915701962038315, 0.0027704489324628023, 0.0078915701962038332, -0.0027704489324628032]}
    - {mu0: 0, rank: 2, ndensity: 2, num_ms_combs: 4, mus: [0, 0], ns: [1, 4], ls: [3, 3], ms_combs: [0, 0, 1, -1, 2, -2, 3, -3], ctildes: [0.0060710334740585866, 0.0004353890547620276, -0.012142066948117175, -0.0008707781095240553, 0.012142066948117173, 0.00087077810952405519, -0.012142066948117175, -0.0008707781095240553]}
    - {mu0: 0, rank: 2, ndensity: 2, num_ms_combs: 1, mus: [0, 0], ns: [1, 5], ls: [0, 0], ms_combs: [0, 0], ctildes: [0.034875057588498862, 0.012524358410023939]}
    - {mu0: 0, rank: 2, ndensity: 2, num_ms_combs: 2, mus: [0, 0], ns: [1, 5], ls: [1, 1], ms_combs: [0, 0, 1, -1], ctildes: [-0.001364946800256373, -0.0032028552264645764, 0.0027298936005127456, 0.0064057104529291519]}
    - {mu0: 0, rank: 2, ndensity: 2, num_ms_combs: 3, mus: [0, 0], ns: [1, 5], ls: [2, 2], ms_combs: [0, 0, 1, -1, 2, -2], ctildes: [0.014547694599430084, 0.0017417326988111285, -0.029095389198860171, -0.0034834653976222574, 0.029095389198860181, 0.0034834653976222583]}
    - {mu0: 0, rank: 2, ndensity: 2, num_ms_combs: 4, mus: [0, 0], ns: [1, 5], ls: [3, 3], ms_combs: [0, 0, 1, -1, 2, -2, 3, -3], ctildes: [-0.00089342129418781987, 0.001327084777470913, 0.0017868425883756402, -0.0026541695549418265, -0.0017868425883756397, 0.0026541695549418261, 0.0017868425883756402, -0.0026541695549418265]}
    - {mu0: 0, rank: 2, ndensity: 2, num_ms_combs: 1, mus: [0, 0], ns: [1, 6], ls: [0, 0], ms_combs: [0, 0], ctildes: [0.066050525697114962, -0.022956929901353885]}
    - {mu0: 0, rank: 2, ndensity: 2, num_ms_combs: 2, mus: [0, 0], ns: [1, 6], ls: [1, 1], ms_combs: [0, 0, 1, -1], ctildes: [0.0032057999351011684, -0.0010014821378127616, -0.0064115998702023351, 0.0020029642756255227]}
    - {mu0: 0, rank: 2, ndensity: 2, num_ms_combs: 3, mus: [0, 0], ns: [1, 6], ls: [2, 2], ms_combs: [0, 0, 1, -1, 2, -2], ctildes: [0.017451072697816299, 0.00501307380972516, -0.034902145395632599, -0.010026147619450322, 0.034902145395632612, 0.010026147619450324]}
    - {mu0: 0, rank: 2, ndensity: 2, num_ms_combs: 4, mus: [0, 0], ns: [1, 6], ls: [3, 3], ms_combs: [0, 0, 1, -1, 2, -2, 3, -3], ctildes: [-0.001389893740538786, 0.0032555321750352443, 0.0027797874810775725, -0.0065110643500704895, -0.002779787481077572, 0.0065110643500704887, 0.0027797874810775725, -0.0065110643500704895]}
    - {mu0: 0, rank: 2, ndensity: 2, num_ms_combs: 1, mus: [0, 0], ns: [2, 2], ls: [0, 0], ms_combs: [0, 0], ctildes: [-0.089469215194681581, -0.0078098680359637435]}
    - {mu0: 0, rank: 2, ndensity: 2, num_ms_combs: 2, mus: [0, 0], ns: [2, 2], ls: [1, 1], ms_combs: [0, 0, 1, -1], ctildes: [0.002227720250834217, 0.00073611002145878126, -0.0044554405016684331, -0.0014722200429175621]}
    - {mu0: 0, rank: 2, ndensity: 2, num_ms_combs: 3, mus: [0, 0], ns: [2, 2], ls: [2, 2], ms_combs: [0, 0, 1, -1, 2, -2], ctildes: [0.0023544445896778272, 0.00093690642620390067, -0.0047088891793556553, -0.0018738128524078016, 0.0047088891793556562, 0.001873812852407802]}
    - {mu0: 0, rank: 2, ndensity: 2, num_ms_combs: 4, mus: [0, 0], ns: [2, 2], ls: [3, 3], ms_combs: [0, 0, 1, -1, 2, -2, 3, -3], ctildes: [-0.00096666359896335232, -0.0011779102206220299, 0.0019333271979267048, 0.0023558204412440602, -0.0019333271979267046, -0.0023558204412440597, 0.0019333271979267048, 0.0023558204412440602]}
    - {mu0: 0, rank: 2, ndensity: 2, num_ms_combs: 1, mus: [0, 0], ns: [2, 3], ls: [0, 0], ms_combs: [0, 0], ctildes: [0.0078132921771034598, -0.001180420617595865]}
    - {mu0: 0, rank: 2, ndensity: 2, num_ms_combs: 2, mus: [0, 0], ns: [2, 3], ls: [1, 1], ms_combs: [0, 0, 1, -1], ctildes: [-0.0034821837629787976, -0.0011841589846164054, 0.0069643675259575943, 0.0023683179692328103]}
    - {mu0: 0, rank: 2, ndensity: 2, num_ms_combs: 3, mus: [0, 0], ns: [2, 3], ls: [2, 2], ms_combs: [0, 0, 1, -1, 2, -2], ctildes: [-0.0011265974420811512, -0.00036989666255327736, 0.0022531948841623029, 0.00073979332510655483, -0.0022531948841623033, -0.00073979332510655494]}
    - {mu0: 0, rank: 2, ndensity: 2, num_ms_combs: 4, mus: [0, 0], ns: [2, 3], ls: [3, 3], ms_combs: [0, 0, 1, -1, 2, -2, 3, -3], ctildes: [-0.0089616362486956615, -0.0013214238924409826, 0.017923272497391327, 0.0026428477848819657, -0.017923272497391323, -0.0026428477848819652, 0.017923272497391327, 0.0026428477848819657]}
    - {mu0: 0, rank: 2, ndensity: 2, num_ms_combs: 1, mus: [0, 0], ns: [2, 4], ls: [0, 0], ms_combs: [0, 0], ctildes: [0.027383288741165024, 0.0067880516263245433]}
    - {mu0: 0, rank: 2, ndensity: 2, num_ms_combs: 2, mus: [0, 0], ns: [2, 4], ls: [1, 1], ms_combs: [0, 0, 1, -1], ctildes: [0.0095142737209323331, -0.00052780713567619774, -0.019028547441864663, 0.0010556142713523953]}
    - {mu0: 0, rank: 2, ndensity: 2, num_ms_combs: 3, mus: [0, 0], ns: [2, 4], ls: [2, 2], ms_combs: [0, 0, 1, -1, 2, -2], ctildes: [0.0086067589074144708, 0.00019845344306287688, -0.017213517814828942, -0.00039690688612575381, 0.017213517814828948, 0.00039690688612575387]}
    - {mu0: 0, rank: 2, ndensity: 2, num_ms_combs: 4, mus: [0, 0], ns: [2, 4], ls: [3, 3], ms_combs: [0, 0, 1, -1, 2, -2, 3, -3], ctildes: [-0.028031389273381294, -0.0019417001005671483, 0.056062778546762594, 0.0038834002011342975, -0.056062778546762587, -0.0038834002011342967, 0.056062778546762594, 0.0038834002011342975]}
    - {mu0: 0, rank: 2, ndensity: 2, num_ms_combs: 1, mus: [0, 0], ns: [2, 5], ls: [0, 0], ms_combs: [0, 0], ctildes: [-0.099387370374483669, -0.0015354524267067217]}
    - {mu0: 0, rank: 2, ndensity: 2, num_ms_combs: 2, mus: [0, 0], ns: [2, 5], ls: [1, 1], ms_combs: [0, 0, 1, -1], ctildes: [0.0028501319070719944, 0.0019300906041124059, -0.005700263814143988, -0.0038601812082248114]}
    - {mu0: 0, rank: 2, ndensity: 2, num_ms_combs: 3, mus: [0, 0], ns: [2, 5], ls: [2, 2], ms_combs: [0, 0, 1, -1, 2, -2], ctildes: [0.020125173957655906, 0.0020084471614370699, -0.040250347915311818, -0.0040168943228741406, 0.040250347915311825, 0.0040168943228741415]}
    - {mu0: 0, rank: 2, ndensity: 2, num_ms_combs: 4, mus: [0, 0], ns: [2, 5], ls: [3, 3], ms_combs: [0, 0, 1, -1, 2, -2, 3, -3], ctildes: [0.028527352945482923, 0.0045086498683647863, -0.057054705890965854, -0.0090172997367295744, 0.057054705890965847, 0.0090172997367295726, -0.057054705890965854, -0.0090172997367295744]}
    - {mu0: 0, rank: 2, ndensity: 2, num_ms_combs: 1, mus: [0, 0], ns: [2, 6], ls: [0, 0], ms_combs: [0, 0], ctildes: [-0.00061928287101713718, -0.032622939061964576]}
    - {mu0: 0, rank: 2, ndensity: 2, num_ms_combs: 2, mus: [0, 0], ns: [2, 6], ls: [1, 1], ms_combs: [0, 0, 1, -1], ctildes: [0.018092968713553224, 0.0078340031025008854, -0.036185937427106442, -0.015668006205001767]}
    - {mu0: 0, rank: 2, ndensity: 2, num_ms_combs: 3, mus: [0, 0], ns: [2, 6], ls: [2, 2], ms_combs: [0, 0, 1, -1, 2, -2], ctildes: [0.0049362784614029164, -0.00074019655461056303, -0.0098725569228058328, 0.0014803931092211263, 0.0098725569228058363, -0.0014803931092211267]}
    - {mu0: 0, rank: 2, ndensity: 2, num_ms_combs: 1, mus: [0, 0], ns: [3, 3], ls: [0, 0], ms_combs: [0, 0], ctildes: [-0.0064254067792044968, -0.00024924839029743796]}
    - {mu0: 0, rank: 2, ndensity: 2, num_ms_combs: 2, mus: [0, 0], ns: [3, 3], ls: [1, 1], ms_combs: [0, 0, 1, -1], ctildes: [-0.00047829166595143835, -0.00065541850720017417, 0.0009565833319028766, 0.0013108370144003481]}
    - {mu0: 0, rank: 2, ndensity: 2, num_ms_combs: 3, mus: [0, 0], ns: [3, 3], ls: [2, 2], ms_combs: [0, 0, 1, -1, 2, -2], ctildes: [-0.020491088710821115, -0.0051357206270124141, 0.040982177421642237, 0.010271441254024828, -0.040982177421642244, -0.010271441254024832]}
    - {mu0: 0, rank: 2, ndensity: 2, num_ms_combs: 4, mus: [0, 0], ns: [3, 3], ls: [3, 3], ms_combs: [0, 0, 1, -1, 2, -2, 3, -3], ctildes: [-0.010570006712303775, 0.0010115931812300471, 0.021140013424607553, -0.0020231863624600947, -0.02114001342460755, 0.0020231863624600942, 0.021140013424607553, -0.0020231863624600947]}
    - {mu0: 0, rank: 2, ndensity: 2, num_ms_combs: 1, mus: [0, 0], ns: [3, 4], ls: [0, 0], ms_combs: [0, 0], ctildes: [-0.0033405881304942467, -0.0053972580341130044]}
    - {mu0: 0, rank: 2, ndensity: 2, num_ms_combs: 2, mus: [0, 0], ns: [3, 4], ls: [1, 1], ms_combs: [0, 0, 1, -1], ctildes: [0.0099696612628546923, 0.0054939588155209339, -0.019939322525709381, -0.010987917631041866]}
    - {mu0: 0, rank: 2, ndensity: 2, num_ms_combs: 3, mus: [0, 0], ns: [3, 4], ls: [2, 2], ms_combs: [0, 0, 1, -1, 2, -2], ctildes: [0.011947809453371386, 0.0030130107524092339, -0.023895618906742775, -0.0060260215048184686, 0.023895618906742778, 0.0060260215048184703]}
    - {mu0: 0, rank: 2, ndensity: 2, num_ms_combs: 4, mus: [0, 0], ns: [3, 4], ls: [3, 3], ms_combs: [0, 0, 1, -1, 2, -2, 3, -3], ctildes: [-0.020809794200697593, 0.0014032406865800622, 0.041619588401395194, -0.0028064813731601248, -0.041619588401395187, 0.0028064813731601243, 0.041619588401395194, -0.0028064813731601248]}
    - {mu0: 0, rank: 2, ndensity: 2, num_ms_combs: 1, mus: [0, 0], ns: [3, 5], ls: [0, 0], ms_combs: [0, 0], ctildes: [-0.010080686410652993, -0.022310740284471858]}
    - {mu0: 0, rank: 2, ndensity: 2, num_ms_combs: 2, mus: [0, 0], ns: [3, 5], ls: [1, 1], ms_combs: [0, 0, 1, -1], ctildes: [0.018712329803426398, 0.00442707606894491, -0.037424659606852789, -0.0088541521378898182]}
    - {mu0: 0, rank: 2, ndensity: 2, num_ms_combs: 3, mus: [0, 0], ns: [3, 5], ls: [2, 2], ms_combs: [0, 0, 1, -1, 2, -2], ctildes: [-0.01636989469479315, -3.5460562942695215e-06, 0.032739789389586299, 7.0921125885390439e-06, -0.032739789389586306, -7.0921125885390456e-06]}
    - {mu0: 0, rank: 2, ndensity: 2, num_ms_combs: 1, mus: [0, 0], ns: [3, 6], ls: [0, 0], ms_combs: [0, 0], ctildes: [0.011174839397672474, -0.018296854029894775]}
    - {mu0: 0, rank: 2, ndensity: 2, num_ms_combs: 2, mus: [0, 0], ns: [3, 6], ls: [1, 1], ms_combs: [0, 0, 1, -1], ctildes: [0.0080220274405317302, -0.0066402557226336503, -0.016044054881063457, 0.013280511445267299]}
    - {mu0: 0, rank: 2, ndensity: 2, num_ms_combs: 3, mus: [0, 0], ns: [3, 6], ls: [2, 2], ms_combs: [0, 0, 1, -1, 2, -2], ctildes: [0.027507588423543672, -0.0022216274380024667, -0.055015176847087351, 0.0044432548760049342, 0.055015176847087364, -0.004443254876004935]}
    - {mu0: 0, rank: 2, ndensity: 2, num_ms_combs: 1, mus: [0, 0], ns: [4, 4], ls: [0, 0], ms_combs: [0, 0], ctildes: [-0.015188737707003318, -0.0095786167693910958]}
    - {mu0: 0, rank: 2, ndensity: 2, num_ms_combs: 2, mus: [0, 0], ns: [4, 4], ls: [1, 1], ms_combs: [0, 0, 1, -1], ctildes: [-0.0073748461421925026, 0.0052981035738369885, 0.014749692284385002, -0.010596207147673975]}
    - {mu0: 0, rank: 2, ndensity: 2, num_ms_combs: 3, mus: [0, 0], ns: [4, 4], ls: [2, 2], ms_combs: [0, 0, 1, -1, 2, -2], ctildes: [-0.0027770123506367151, 0.0021706274764254976, 0.0055540247012734311, -0.0043412549528509961, -0.005554024701273432, 0.004341254952850997]}
    - {mu0: 0, rank: 2, ndensity: 2, num_ms_combs: 1, mus: [0, 0], ns: [4, 5], ls: [0, 0], ms_combs: [0, 0], ctildes: [0.022762237444052234, -0.016236339232305622]}
    - {mu0: 0, rank: 2, ndensity: 2, num_ms_combs: 2, mus: [0, 0], ns: [4, 5], ls: [1, 1], ms_combs: [0, 0, 1, -1], ctildes: [0.0053523602206902209, -0.0051210383552255587, -0.01070472044138044, 0.010242076710451116]}
    - {mu0: 0, rank: 2, ndensity: 2, num_ms_combs: 3, mus: [0, 0], ns: [4, 5], ls: [2, 2], ms_combs: [0, 0, 1, -1, 2, -2], ctildes: [-0.01004372997559615, 0.005768884243878062, 0.020087459951192304, -0.011537768487756126, -0.020087459951192311, 0.011537768487756129]}
    - {mu0: 0, rank: 2, ndensity: 2, num_ms_combs: 1, mus: [0, 0], ns: [4, 6], ls: [0, 0], ms_combs: [0, 0], ctildes: [-0.0092893239373899889, -0.017975879964640552]}
    - {mu0: 0, rank: 2, ndensity: 2, num_ms_combs: 2, mus: [0, 0], ns: [4, 6], ls: [1, 1], ms_combs: [0, 0, 1, -1], ctildes: [-0.008993806968983057, -0.016295849679656083, 0.017987613937966111, 0.032591699359312158]}
    - {mu0: 0, rank: 2, ndensity: 2, num_ms_combs: 1, mus: [0, 0], ns: [5, 5], ls: [0, 0], ms_combs: [0, 0], ctildes: [0.021724555685070531, 0.027370073959900452]}
    - {mu0: 0, rank: 2, ndensity: 2, num_ms_combs: 2, mus: [0, 0], ns: [5, 5], ls: [1, 1], ms_combs: [0, 0, 1, -1], ctildes: [0.022118504004785329, 0.0085469088530491354, -0.044237008009570651, -0.017093817706098267]}
    - {mu0: 0, rank: 2, ndensity: 2, num_ms_combs: 1, mus: [0, 0], ns: [5, 6], ls: [0, 0], ms_combs: [0, 0], ctildes: [-0.024684135958722465, -6.2601376415917661e-05]}
    - {mu0: 0, rank: 2, ndensity: 2, num_ms_combs: 2, mus: [0, 0], ns: [5, 6], ls: [1, 1], ms_combs: [0, 0, 1, -1], ctildes: [-0.0071386141752888283, 0.024817674132476451, 0.014277228350577653, -0.049635348264952896]}
    - {mu0: 0, rank: 2, ndensity: 2, num_ms_combs: 1, mus: [0, 0], ns: [6, 6], ls: [0, 0], ms_combs: [0, 0], ctildes: [0.029794497929207089, -0.015247256836600926]}
    - {mu0: 0, rank: 2, ndensity: 2, num_ms_combs: 1, mus: [0, 1], ns: [1, 1], ls: [0, 0], ms_combs: [0, 0], ctildes: [-0.039758536712823443, -0.0027274477519497785]}
    - {mu0: 0, rank: 2, ndensity: 2, num_ms_combs: 2, mus: [0, 1], ns: [1, 1], ls: [1, 1], ms_combs: [0, 0, 1, -1], ctildes: [0.013340121377880642, 0.0033204015912219392, -0.026680242755761276, -0.0066408031824438767]}
    - {mu0: 0, rank: 2, ndensity: 2, num_ms_combs: 3, mus: [0, 1], ns: [1, 1], ls: [2, 2], ms_combs: [0, 0, 1, -1, 2, -2], ctildes: [-0.0021409946020888655, 0.00017908427219685409, 0.0042819892041777319, -0.00035816854439370819, -0.0042819892041777328, 0.0003581685443937083]}
    - {mu0: 0, rank: 2, ndensity: 2, num_ms_combs: 4, mus: [0, 1], ns: [1, 1], ls: [3, 3], ms_combs: [0, 0, 1, -1, 2, -2, 3, -3], ctildes: [-0.01110996708639324, -0.0040130053292563514, 0.022219934172786483, 0.0080260106585127045, -0.02221993417278648, -0.0080260106585127028, 0.022219934172786483, 0.0080260106585127045]}
    - {mu0: 0, rank: 2, ndensity: 2, num_ms_combs: 1, mus: [0, 1], ns: [1, 2], ls: [0, 0], ms_combs: [0, 0], ctildes: [0.013796277470757498, 0.010701707575209874]}
    - {mu0: 0, rank: 2, ndensity: 2, num_ms_combs: 2, mus: [0, 1], ns: [1, 2], ls: [1, 1], ms_combs: [0, 0, 1, -1], ctildes: [-0.0088619245823265413, -0.00035345327098073876, 0.017723849164653083, 0.00070690654196147742]}
    - {mu0: 0, rank: 2, ndensity: 2, num_ms_combs: 3, mus: [0, 1], ns: [1, 2], ls: [2, 2], ms_combs: [0, 0, 1, -1, 2, -2], ctildes: [-0.0012020777151217972, 0.00010981009677147653, 0.0024041554302435949, -0.00021962019354295308, -0.0024041554302435954, 0.00021962019354295314]}
    - {mu0: 0, rank: 2, ndensity: 2, num_ms_combs: 4, mus: [0, 1], ns: [1, 2], ls: [3, 3], ms_combs: [0, 0, 1, -1, 2, -2, 3, -3], ctildes: [-0.021988304404141824, -0.00032222585317826804, 0.043976608808283656, 0.00064445170635653618, -0.043976608808283649, -0.00064445170635653607, 0.043976608808283656, 0.00064445170635653618]}
    - {mu0: 0, rank: 2, ndensity: 2, num_ms_combs: 1, mus: [0, 1], ns: [1, 3], ls: [0, 0], ms_combs: [0, 0], ctildes: [0.048617164461514789, 0.0023684032426280989]}
    - {mu0: 0, rank: 2, ndensity: 2, num_ms_combs: 2, mus: [0, 1], ns: [1, 3], ls: [1, 1], ms_combs: [0, 0, 1, -1], ctildes: [0.00046945677532143421, 0.0037504690126080446, -0.00093891355064286831, -0.0075009380252160883]}
    - {mu0: 0, rank: 2, ndensity: 2, num_ms_combs: 3, mus: [0, 1], ns: [1, 3], ls: [2, 2], ms_combs: [0, 0, 1, -1, 2, -2], ctildes: [-0.046323017736157129, -0.0051552199813456132, 0.092646035472314273, 0.010310439962691228, -0.0926460354723143, -0.01031043996269123]}
    - {mu0: 0, rank: 2, ndensity: 2, num_ms_combs: 4, mus: [0, 1], ns: [1, 3], ls: [3, 3], ms_combs: [0, 0, 1, -1, 2, -2, 3, -3], ctildes: [-0.0069565884185626989, -0.0046401181326596484, 0.0139131768371254, 0.0092802362653192985, -0.013913176837125398, -0.0092802362653192968, 0.0139131768371254, 0.0092802362653192985]}
    - {mu0: 0, rank: 2, ndensity: 2, num_ms_combs: 1, mus: [0, 1], ns: [1, 4], ls: [0, 0], ms_combs: [0, 0], ctildes: [-0.017550262194343046, -0.010848708775368403]}
    - {mu0: 0, rank: 2, ndensity: 2, num_ms_combs: 2, mus: [0, 1], ns: [1, 4], ls: [1, 1], ms_combs: [0, 0, 1, -1], ctildes: [0.027904414160031293, 0.003018065745578221, -0.055808828320062578, -0.0060361314911564403]}
    - {mu0: 0, rank: 2, ndensity: 2, num_ms_combs: 3, mus: [0, 1], ns: [1, 4], ls: [2, 2], ms_combs: [0, 0, 1, -1, 2, -2], ctildes: [0.019205038313093857, 0.0053417985801253384, -0.038410076626187714, -0.010683597160250679, 0.038410076626187728, 0.010683597160250682]}
    - {mu0: 0, rank: 2, ndensity: 2, num_ms_combs: 1, mus: [0, 1], ns: [1, 5], ls: [0, 0], ms_combs: [0, 0], ctildes: [0.0173233660208174, 0.012241676695297736]}
    - {mu0: 0, rank: 2, ndensity: 2, num_ms_combs: 2, mus: [0, 1], ns: [1, 5], ls: [1, 1], ms_combs: [0, 0, 1, -1], ctildes: [0.024501231510232292, -0.0045844517548596945, -0.049002463020464578, 0.0091689035097193873]}
    - {mu0: 0, rank: 2, ndensity: 2, num_ms_combs: 3, mus: [0, 1], ns: [1, 5], ls: [2, 2], ms_combs: [0, 0, 1, -1, 2, -2], ctildes: [0.0055029689960862755, -0.00038713076133079004, -0.011005937992172553, 0.00077426152266158008, 0.011005937992172555, -0.00077426152266158029]}
    - {mu0: 0, rank: 2, ndensity: 2, num_ms_combs: 1, mus: [0, 1], ns: [1, 6], ls: [0, 0], ms_combs: [0, 0], ctildes: [-0.057961503778021464, -0.02203806877878884]}
    - {mu0: 0, rank: 2, ndensity: 2, num_ms_combs: 2, mus: [0, 1], ns: [1, 6], ls: [1, 1], ms_combs: [0, 0, 1, -1], ctildes: [-0.0081212771107963752, -0.0069692211387641749, 0.016242554221592747, 0.013938442277528348]}
    - {mu0: 0, rank: 2, ndensity: 2, num_ms_combs: 1, mus: [0, 1], ns: [2, 1], ls: [0, 0], ms_combs: [0, 0], ctildes: [-0.10232035453119814, -0.014181861189558789]}
    - {mu0: 0, rank: 2, ndensity: 2, num_ms_combs: 2, mus: [0, 1], ns: [2, 1], ls: [1, 1], ms_combs: [0, 0, 1, -1], ctildes: [-0.0041737655789360279, -0.00034230149346512877, 0.008347531157872054, 0.00068460298693025744]}
    - {mu0: 0, rank: 2, ndensity: 2, num_ms_combs: 3, mus: [0, 1], ns: [2, 1], ls: [2, 2], ms_combs: [0, 0, 1, -1, 2, -2], ctildes: [0.0013603154451059698, -0.0018050232081566931, -0.0027206308902119401, 0.0036100464163133865, 0.0027206308902119405, -0.0036100464163133878]}
    - {mu0: 0, rank: 2, ndensity: 2, num_ms_combs: 4, mus: [0, 1], ns: [2, 1], ls: [3, 3], ms_combs: [0, 0, 1, -1, 2, -2, 3, -3], ctildes: [0.0088224611647287465, -0.0016117360778824725, -0.017644922329457493, 0.0032234721557649454, 0.017644922329457493, -0.003223472155764945, -0.017644922329457493, 0.0032234721557649454]}
    - {mu0: 0, rank: 2, ndensity: 2, num_ms_combs: 1, mus: [0, 1], ns: [2, 2], ls: [0, 0], ms_combs: [0, 0], ctildes: [-0.027553031324375143, 0.0046035068951028341]}
    - {mu0: 0, rank: 2, ndensity: 2, num_ms_combs: 2, mus: [0, 1], ns: [2, 2], ls: [1, 1], ms_combs: [0, 0, 1, -1], ctildes: [-0.012525126369928355, -0.001578218627886944, 0.025050252739856706, 0.0031564372557738871]}
    - {mu0: 0, rank: 2, ndensity: 2, num_ms_combs: 3, mus: [0, 1], ns: [2, 2], ls: [2, 2], ms_combs: [0, 0, 1, -1, 2, -2], ctildes: [-0.067714206255292758, -0.0077254083017609561, 0.13542841251058554, 0.015450816603521916, -0.13542841251058557, -0.015450816603521919]}
    - {mu0: 0, rank: 2, ndensity: 2, num_ms_combs: 4, mus: [0, 1], ns: [2, 2], ls: [3, 3], ms_combs: [0, 0, 1, -1, 2, -2, 3, -3], ctildes: [-0.029894670038055116, 0.001177097586890707, 0.059789340076110239, -0.0023541951737814145, -0.059789340076110233, 0.0023541951737814141, 0.059789340076110239, -0.0023541951737814145]}
    - {mu0: 0, rank: 2, ndensity: 2, num_ms_combs: 1, mus: [0, 1], ns: [2, 3], ls: [0, 0], ms_combs: [0, 0], ctildes: [0.047426153524675871, 0.0024250385038017018]}
    - {mu0: 0, rank: 2, ndensity: 2, num_ms_combs: 2, mus: [0, 1], ns: [2, 3], ls: [1, 1], ms_combs: [0, 0, 1, -1], ctildes: [0.0095365172014936338, -0.001885378221591111, -0.019073034402987264, 0.0037707564431822211]}
    - {mu0: 0, rank: 2, ndensity: 2, num_ms_combs: 3, mus: [0, 1], ns: [2, 3], ls: [2, 2], ms_combs: [0, 0, 1, -1, 2, -2], ctildes: [0.04084331374593806, 0.0011069074610707583, -0.081686627491876121, -0.0022138149221415169, 0.081686627491876149, 0.0022138149221415174]}
    - {mu0: 0, rank: 2, ndensity: 2, num_ms_combs: 1, mus: [0, 1], ns: [2, 4], ls: [0, 0], ms_combs: [0, 0], ctildes: [-0.14895722729638461, -0.031546324211061696]}
    - {mu0: 0, rank: 2, ndensity: 2, num_ms_combs: 2, mus: [0, 1], ns: [2, 4], ls: [1, 1], ms_combs: [0, 0, 1, -1], ctildes: [0.01209398662257183, 0.0065561103073067542, -0.024187973245143657, -0.013112220614613507]}
    - {mu0: 0, rank: 2, ndensity: 2, num_ms_combs: 3, mus: [0, 1], ns: [2, 4], ls: [2, 2], ms_combs: [0, 0, 1, -1, 2, -2], ctildes: [-0.020660839205162561, -0.0065774547587870401, 0.041321678410325122, 0.013154909517574082, -0.041321678410325136, -0.013154909517574085]}
    - {mu0: 0, rank: 2, ndensity: 2, num_ms_combs: 1, mus: [0, 1], ns: [2, 5], ls: [0, 0], ms_combs: [0, 0], ctildes: [-0.0069806928572431551, 0.0032552225118609125]}
    - {mu0: 0, rank: 2, ndensity: 2, num_ms_combs: 2, mus: [0, 1], ns: [2, 5], ls: [1, 1], ms_combs: [0, 0, 1, -1], ctildes: [-0.039818890186845687, -0.0038126810241248263, 0.079637780373691361, 0.0076253620482496509]}
    - {mu0: 0, rank: 2, ndensity: 2, num_ms_combs: 1, mus: [0, 1], ns: [2, 6], ls: [0, 0], ms_combs: [0, 0], ctildes: [-0.017803875894285, -0.024279689170288644]}
    - {mu0: 0, rank: 2, ndensity: 2, num_ms_combs: 2, mus: [0, 1], ns: [2, 6], ls: [1, 1], ms_combs: [0, 0, 1, -1], ctildes: [0.010002622824841371, -0.019105905222352969, -0.02000524564968274, 0.038211810444705931]}
    - {mu0: 0, rank: 2, ndensity: 2, num_ms_combs: 1, mus: [0, 1], ns: [3, 1], ls: [0, 0], ms_combs: [0, 0], ctildes: [0.0015844345279382656, -0.00080262724294358971]}
    - {mu0: 0, rank: 2, ndensity: 2, num_ms_combs: 2, mus: [0, 1], ns: [3, 1], ls: [1, 1], ms_combs: [0, 0, 1, -1], ctildes: [-0.0027243795616885618, -0.00099976164390118503, 0.0054487591233771228, 0.0019995232878023696]}
    - {mu0: 0, rank: 2, ndensity: 2, num_ms_combs: 3, mus: [0, 1], ns: [3, 1], ls: [2, 2], ms_combs: [0, 0, 1, -1, 2, -2], ctildes: [-0.011173536874894302, -0.0032497490024052107, 0.022347073749788608, 0.0064994980048104223, -0.022347073749788615, -0.006499498004810424]}
    - {mu0: 0, rank: 2, ndensity: 2, num_ms_combs: 4, mus: [0, 1], ns: [3, 1], ls: [3, 3], ms_combs: [0, 0, 1, -1, 2, -2, 3, -3], ctildes: [-0.019497573462188902, -0.011194720527896976, 0.038995146924377812, 0.022389441055793956, -0.038995146924377805, -0.022389441055793952, 0.038995146924377812, 0.022389441055793956]}
    - {mu0: 0, rank: 2, ndensity: 2, num_ms_combs: 1, mus: [0, 1], ns: [3, 2], ls: [0, 0], ms_combs: [0, 0], ctildes: [-0.002314112326518934, -0.0015459011270889842]}
    - {mu0: 0, rank: 2, ndensity: 2, num_ms_combs: 2, mus: [0, 1], ns: [3, 2], ls: [1, 1], ms_combs: [0, 0, 1, -1], ctildes: [-0.021411598275545798, -0.0026610540024170327, 0.04282319655109159, 0.0053221080048340636]}
    - {mu0: 0, rank: 2, ndensity: 2, num_ms_combs: 3, mus: [0, 1], ns: [3, 2], ls: [2, 2], ms_combs: [0, 0, 1, -1, 2, -2], ctildes: [-0.029074799138492455, -0.0034740374853348974, 0.058149598276984925, 0.0069480749706697957, -0.058149598276984939, -0.0069480749706697974]}
    - {mu0: 0, rank: 2, ndensity: 2, num_ms_combs: 1, mus: [0, 1], ns: [3, 3], ls: [0, 0], ms_combs: [0, 0], ctildes: [0.030150266121121039, 0.011238678735715314]}
    - {mu0: 0, rank: 2, ndensity: 2, num_ms_combs: 2, mus: [0, 1], ns: [3, 3], ls: [1, 1], ms_combs: [0, 0, 1, -1], ctildes: [0.03411306864140181, 0.0058561831825585317, -0.068226137282803606, -0.011712366365117062]}
    - {mu0: 0, rank: 2, ndensity: 2, num_ms_combs: 3, mus: [0, 1], ns: [3, 3], ls: [2, 2], ms_combs: [0, 0, 1, -1, 2, -2], ctildes: [0.005450752747226408, -0.0015984856294280357, -0.010901505494452816, 0.0031969712588560718, 0.01090150549445282, -0.0031969712588560727]}
    - {mu0: 0, rank: 2, ndensity: 2, num_ms_combs: 1, mus: [0, 1], ns: [3, 4], ls: [0, 0], ms_combs: [0, 0], ctildes: [0.096484714489530152, 0.015811232728840684]}
    - {mu0: 0, rank: 2, ndensity: 2, num_ms_combs: 2, mus: [0, 1], ns: [3, 4], ls: [1, 1], ms_combs: [0, 0, 1, -1], ctildes: [-0.020045512232291531, -0.0035999682556457531, 0.040091024464583055, 0.0071999365112915053]}
    - {mu0: 0, rank: 2, ndensity: 2, num_ms_combs: 1, mus: [0, 1], ns: [3, 5], ls: [0, 0], ms_combs: [0, 0], ctildes: [2.6201621937673591e-05, -0.0006717906115461835]}
    - {mu0: 0, rank: 2, ndensity: 2, num_ms_combs: 2, mus: [0, 1], ns: [3, 5], ls: [1, 1], ms_combs: [0, 0, 1, -1], ctildes: [0.021508306151450305, 0.0046669417499863187, -0.043016612302900596, -0.0093338834999726356]}
    - {mu0: 0, rank: 2, ndensity: 2, num_ms_combs: 1, mus: [0, 1], ns: [3, 6], ls: [0, 0], ms_combs: [0, 0], ctildes: [0.033263413135002043, -0.0018306197629810641]}
    - {mu0: 0, rank: 2, ndensity: 2, num_ms_combs: 1, mus: [0, 1], ns: [4, 1], ls: [0, 0], ms_combs: [0, 0], ctildes: [0.028976215795360076, 0.010592482946575832]}
    - {mu0: 0, rank: 2, ndensity: 2, num_ms_combs: 2, mus: [0, 1], ns: [4, 1], ls: [1, 1], ms_combs: [0, 0, 1, -1], ctildes: [0.010615911966498125, 0.0024993625209786294, -0.021231823932996247, -0.0049987250419572579]}
    - {mu0: 0, rank: 2, ndensity: 2, num_ms_combs: 3, mus: [0, 1], ns: [4, 1], ls: [2, 2], ms_combs: [0, 0, 1, -1, 2, -2], ctildes: [0.0075054414907774125, 0.0072442403525654359, -0.015010882981554827, -0.014488480705130874, 0.015010882981554832, 0.014488480705130877]}
    - {mu0: 0, rank: 2, ndensity: 2, num_ms_combs: 1, mus: [0, 1], ns: [4, 2], ls: [0, 0], ms_combs: [0, 0], ctildes: [0.0089220776520305915, 0.0065661777275346491]}
    - {mu0: 0, rank: 2, ndensity: 2, num_ms_combs: 2, mus: [0, 1], ns: [4, 2], ls: [1, 1], ms_combs: [0, 0, 1, -1], ctildes: [-0.0015233617397938666, 0.0029065367817373428, 0.0030467234795877327, -0.0058130735634746838]}
    - {mu0: 0, rank: 2, ndensity: 2, num_ms_combs: 3, mus: [0, 1], ns: [4, 2], ls: [2, 2], ms_combs: [0, 0, 1, -1, 2, -2], ctildes: [0.01458884776524594, -0.001878409707955552, -0.029177695530491883, 0.0037568194159111044, 0.02917769553049189, -0.0037568194159111053]}
    - {mu0: 0, rank: 2, ndensity: 2, num_ms_combs: 1, mus: [0, 1], ns: [4, 3], ls: [0, 0], ms_combs: [0, 0], ctildes: [-0.09834883628158092, -0.0040104256193108125]}
    - {mu0: 0, rank: 2, ndensity: 2, num_ms_combs: 2, mus: [0, 1], ns: [4, 3], ls: [1, 1], ms_combs: [0, 0, 1, -1], ctildes: [0.0084512130210509673, 0.017739999115236792, -0.016902426042101931, -0.035479998230473576]}
    - {mu0: 0, rank: 2, ndensity: 2, num_ms_combs: 1, mus: [0, 1], ns: [4, 4], ls: [0, 0], ms_combs: [0, 0], ctildes: [0.16203647237906035, 0.035612678158507084]}
    - {mu0: 0, rank: 2, ndensity: 2, num_ms_combs: 2, mus: [0, 1], ns: [4, 4], ls: [1, 1], ms_combs: [0, 0, 1, -1], ctildes: [0.00048148026548632678, -0.014142628347017665, -0.00096296053097265344, 0.028285256694035324]}
    - {mu0: 0, rank: 2, ndensity: 2, num_ms_combs: 1, mus: [0, 1], ns: [4, 5], ls: [0, 0], ms_combs: [0, 0], ctildes: [-0.12331715443082149, -0.018975011381095624]}
    - {mu0: 0, rank: 2, ndensity: 2, num_ms_combs: 1, mus: [0, 1], ns: [4, 6], ls: [0, 0], ms_combs: [0, 0], ctildes: [0.019041689500466894, -0.00049480922900415703]}
    - {mu0: 0, rank: 2, ndensity: 2, num_ms_combs: 1, mus: [0, 1], ns: [5, 1], ls: [0, 0], ms_combs: [0, 0], ctildes: [-0.081237506964195488, -0.0053441510053924461]}
    - {mu0: 0, rank: 2, ndensity: 2, num_ms_combs: 2, mus: [0, 1], ns: [5, 1], ls: [1, 1], ms_combs: [0, 0, 1, -1], ctildes: [-0.0045757249505095346, 0.0014725410888437936, 0.0091514499010190674, -0.0029450821776875863]}
    - {mu0: 0, rank: 2, ndensity: 2, num_ms_combs: 3, mus: [0, 1], ns: [5, 1], ls: [2, 2], ms_combs: [0, 0, 1, -1, 2, -2], ctildes: [0.014140575947225252, 0.0038481483139978742, -0.028281151894450508, -0.0076962966279957492, 0.028281151894450515, 0.0076962966279957509]}
    - {mu0: 0, rank: 2, ndensity: 2, num_ms_combs: 1, mus: [0, 1], ns: [5, 2], ls: [0, 0], ms_combs: [0, 0], ctildes: [-0.018940344728789346, 0.01842598082437457]}
    - {mu0: 0, rank: 2, ndensity: 2, num_ms_combs: 2, mus: [0, 1], ns: [5, 2], ls: [1, 1], ms_combs: [0, 0, 1, -1], ctildes: [0.017043097975763123, 0.0038207766611241438, -0.034086195951526239, -0.0076415533222482859]}
    - {mu0: 0, rank: 2, ndensity: 2, num_ms_combs: 1, mus: [0, 1], ns: [5, 3], ls: [0, 0], ms_combs: [0, 0], ctildes: [-0.013292360302579418, -0.0030415350095991602]}
    - {mu0: 0, rank: 2, ndensity: 2, num_ms_combs: 2, mus: [0, 1], ns: [5, 3], ls: [1, 1], ms_combs: [0, 0, 1, -1], ctildes: [0.00015195830469239149, 0.00088425627771067546, -0.00030391660938478292, -0.0017685125554213505]}
    - {mu0: 0, rank: 2, ndensity: 2, num_ms_combs: 1, mus: [0, 1], ns: [5, 4], ls: [0, 0], ms_combs: [0, 0], ctildes: [-0.0025162032130343921, 0.0077311258104682421]}
    - {mu0: 0, rank: 2, ndensity: 2, num_ms_combs: 1, mus: [0, 1], ns: [5, 5], ls: [0, 0], ms_combs: [0, 0], ctildes: [0.023085455397568452, -0.0081364552151955497]}
    - {mu0: 0, rank: 2, ndensity: 2, num_ms_combs: 1, mus: [0, 1], ns: [6, 1], ls: [0, 0], ms_combs: [0, 0], ctildes: [0.052627192011277524, -0.037250677094249708]}
    - {mu0: 0, rank: 2, ndensity: 2, num_ms_combs: 2, mus: [0, 1], ns: [6, 1], ls: [1, 1], ms_combs: [0, 0, 1, -1], ctildes: [-0.015572121569720293, 0.00013092152955608154, 0.031144243139440579, -0.00026184305911216307]}
    - {mu0: 0, rank: 2, ndensity: 2, num_ms_combs: 1, mus: [0, 1], ns: [6, 2], ls: [0, 0], ms_combs: [0, 0], ctildes: [-0.0041968217078641483, -0.020267562444876042]}
    - {mu0: 0, rank: 2, ndensity: 2, num_ms_combs: 2, mus: [0, 1], ns: [6, 2], ls: [1, 1], ms_combs: [0, 0, 1, -1], ctildes: [-0.013956195700931755, -0.0060523261334750073, 0.027912391401863502, 0.012104652266950013]}
    - {mu0: 0, rank: 2, ndensity: 2, num_ms_combs: 1, mus: [0, 1], ns: [6, 3], ls: [0, 0], ms_combs: [0, 0], ctildes: [-0.020190491765332025, -0.050683656270075164]}
    - {mu0: 0, rank: 2, ndensity: 2, num_ms_combs: 1, mus: [0, 1], ns: [6, 4], ls: [0, 0], ms_combs: [0, 0], ctildes: [0.020293301650804285, -0.035941307426974128]}
    - {mu0: 0, rank: 2, ndensity: 2, num_ms_combs: 1, mus: [1, 1], ns: [1, 1], ls: [0, 0], ms_combs: [0, 0], ctildes: [-0.10880425155856496, -0.018619426552851207]}
    - {mu0: 0, rank: 2, ndensity: 2, num_ms_combs: 2, mus: [1, 1], ns: [1, 1], ls: [1, 1], ms_combs: [0, 0, 1, -1], ctildes: [-0.013570802250168641, -0.0014209869723625867, 0.027141604500337275, 0.0028419739447251729]}
    - {mu0: 0, rank: 2, ndensity: 2, num_ms_combs: 3, mus: [1, 1], ns: [1, 1], ls: [2, 2], ms_combs: [0, 0, 1, -1, 2, -2], ctildes: [-0.0099814963691682908, 0.00028244831848788388, 0.019962992738336585, -0.00056489663697576777, -0.019962992738336589, 0.00056489663697576798]}
    - {mu0: 0, rank: 2, ndensity: 2, num_ms_combs: 4, mus: [1, 1], ns: [1, 1], ls: [3, 3], ms_combs: [0, 0, 1, -1, 2, -2, 3, -3], ctildes: [0.0026963789087986203, -0.010515611046991065, -0.0053927578175972414, 0.021031222093982133, 0.0053927578175972405, -0.02103122209398213, -0.0053927578175972414, 0.021031222093982133]}
    - {mu0: 0, rank: 2, ndensity: 2, num_ms_combs: 1, mus: [1, 1], ns: [1, 2], ls: [0, 0], ms_combs: [0, 0], ctildes: [-0.026513839322335104, 0.0034130819562061048]}
    - {mu0: 0, rank: 2, ndensity: 2, num_ms_combs: 2, mus: [1, 1], ns: [1, 2], ls: [1, 1], ms_combs: [0, 0, 1, -1], ctildes: [0.005827071975020001, 0.0015917996381053067, -0.011654143950039999, -0.0031835992762106126]}
    - {mu0: 0, rank: 2, ndensity: 2, num_ms_combs: 3, mus: [1, 1], ns: [1, 2], ls: [2, 2], ms_combs: [0, 0, 1, -1, 2, -2], ctildes: [-0.0085512266032264656, -0.0042735702287336023, 0.017102453206452931, 0.0085471404574672064, -0.017102453206452938, -0.0085471404574672082]}
    - {mu0: 0, rank: 2, ndensity: 2, num_ms_combs: 4, mus: [1, 1], ns: [1, 2], ls: [3, 3], ms_combs: [0, 0, 1, -1, 2, -2, 3, -3], ctildes: [0.012648594821645671, -0.0019983227540550331, -0.025297189643291345, 0.0039966455081100662, 0.025297189643291342, -0.0039966455081100662, -0.025297189643291345, 0.0039966455081100662]}
    - {mu0: 0, rank: 2, ndensity: 2, num_ms_combs: 1, mus: [1, 1], ns: [1, 3], ls: [0, 0], ms_combs: [0, 0], ctildes: [0.061073958862160389, 0.0035013046399557141]}
    - {mu0: 0, rank: 2, ndensity: 2, num_ms_combs: 2, mus: [1, 1], ns: [1, 3], ls: [1, 1], ms_combs: [0, 0, 1, -1], ctildes: [0.0046822496559753629, 8.7575830331190511e-05, -0.009364499311950724, -0.00017515166066238097]}
    - {mu0: 0, rank: 2, ndensity: 2, num_ms_combs: 3, mus: [1, 1], ns: [1, 3], ls: [2, 2], ms_combs: [0, 0, 1, -1, 2, -2], ctildes: [0.037064850400948375, 0.0056928073857974376, -0.074129700801896764, -0.011385614771594877, 0.074129700801896778, 0.011385614771594881]}
    - {mu0: 0, rank: 2, ndensity: 2, num_ms_combs: 4, mus: [1, 1], ns: [1, 3], ls: [3, 3], ms_combs: [0, 0, 1, -1, 2, -2, 3, -3], ctildes: [-0.00042351905918098495, -0.013661482466761752, 0.00084703811836197001, 0.027322964933523507, -0.0008470381183619699, -0.027322964933523503, 0.00084703811836197001, 0.027322964933523507]}
    - {mu0: 0, rank: 2, ndensity: 2, num_ms_combs: 1, mus: [1, 1], ns: [1, 4], ls: [0, 0], ms_combs: [0, 0], ctildes: [-0.063815596328933633, -0.02705024040411684]}
    - {mu0: 0, rank: 2, ndensity: 2, num_ms_combs: 2, mus: [1, 1], ns: [1, 4], ls: [1, 1], ms_combs: [0, 0, 1, -1], ctildes: [-0.0071965170326299911, 0.0014952760620694809, 0.014393034065259979, -0.0029905521241389613]}
    - {mu0: 0, rank: 2, ndensity: 2, num_ms_combs: 3, mus: [1, 1], ns: [1, 4], ls: [2, 2], ms_combs: [0, 0, 1, -1, 2, -2], ctildes: [-0.024619111781193217, 0.00075078946285069578, 0.049238223562386441, -0.0015015789257013916, -0.049238223562386448, 0.001501578925701392]}
    - {mu0: 0, rank: 2, ndensity: 2, num_ms_combs: 1, mus: [1, 1], ns: [1, 5], ls: [0, 0], ms_combs: [0, 0], ctildes: [0.00094869987751816718, 0.0045592444791876918]}
    - {mu0: 0, rank: 2, ndensity: 2, num_ms_combs: 2, mus: [1, 1], ns: [1, 5], ls: [1, 1], ms_combs: [0, 0, 1, -1], ctildes: [-0.0028798412264620776, -0.0070924806546767321, 0.0057596824529241543, 0.014184961309353462]}
    - {mu0: 0, rank: 2, ndensity: 2, num_ms_combs: 3, mus: [1, 1], ns: [1, 5], ls: [2, 2], ms_combs: [0, 0, 1, -1, 2, -2], ctildes: [0.02854866880518675, -0.0048537026259706543, -0.057097337610373507, 0.0097074052519413086, 0.057097337610373521, -0.0097074052519413121]}
    - {mu0: 0, rank: 2, ndensity: 2, num_ms_combs: 1, mus: [1, 1], ns: [1, 6], ls: [0, 0], ms_combs: [0, 0], ctildes: [0.032489092874843133, -0.020451737765958523]}
    - {mu0: 0, rank: 2, ndensity: 2, num_ms_combs: 2, mus: [1, 1], ns: [1, 6], ls: [1, 1], ms_combs: [0, 0, 1, -1], ctildes: [0.018635422722458963, -0.016575608247507718, -0.037270845444917919, 0.033151216495015429]}
    - {mu0: 0, rank: 2, ndensity: 2, num_ms_combs: 1, mus: [1, 1], ns: [2, 2], ls: [0, 0], ms_combs: [0, 0], ctildes: [0.014742595990759784, 0.014417107830277998]}
    - {mu0: 0, rank: 2, ndensity: 2, num_ms_combs: 2, mus: [1, 1], ns: [2, 2], ls: [1, 1], ms_combs: [0, 0, 1, -1], ctildes: [0.029151819733671272, 0.0016117484170798753, -0.05830363946734253, -0.0032234968341597497]}
    - {mu0: 0, rank: 2, ndensity: 2, num_ms_combs: 3, mus: [1, 1], ns: [2, 2], ls: [2, 2], ms_combs: [0, 0, 1, -1, 2, -2], ctildes: [0.12083358958236859, 0.020702789813480293, -0.24166717916473721, -0.041405579626960586, 0.24166717916473726, 0.041405579626960599]}
    - {mu0: 0, rank: 2, ndensity: 2, num_ms_combs: 4, mus: [1, 1], ns: [2, 2], ls: [3, 3], ms_combs: [0, 0, 1, -1, 2, -2, 3, -3], ctildes: [0.00012077852131657911, 0.01606947059602596, -0.00024155704263315825, -0.03213894119205192, 0.00024155704263315823, 0.03213894119205192, -0.00024155704263315825, -0.03213894119205192]}
    - {mu0: 0, rank: 2, ndensity: 2, num_ms_combs: 1, mus: [1, 1], ns: [2, 3], ls: [0, 0], ms_combs: [0, 0], ctildes: [0.082758296235122236, 0.014011888435241288]}
    - {mu0: 0, rank: 2, ndensity: 2, num_ms_combs: 2, mus: [1, 1], ns: [2, 3], ls: [1, 1], ms_combs: [0, 0, 1, -1], ctildes: [-0.030823618286116031, -0.0037610693490656997, 0.061647236572232048, 0.0075221386981313984]}
    - {mu0: 0, rank: 2, ndensity: 2, num_ms_combs: 3, mus: [1, 1], ns: [2, 3], ls: [2, 2], ms_combs: [0, 0, 1, -1, 2, -2], ctildes: [-0.053523937847851005, -0.014772326406318318, 0.10704787569570202, 0.02954465281263664, -0.10704787569570205, -0.029544652812636647]}
    - {mu0: 0, rank: 2, ndensity: 2, num_ms_combs: 1, mus: [1, 1], ns: [2, 4], ls: [0, 0], ms_combs: [0, 0], ctildes: [0.010176723490293804, 0.0093444790799768421]}
    - {mu0: 0, rank: 2, ndensity: 2, num_ms_combs: 2, mus: [1, 1], ns: [2, 4], ls: [1, 1], ms_combs: [0, 0, 1, -1], ctildes: [0.084031113959745218, 0.0099565292775193274, -0.16806222791949041, -0.019913058555038651]}
    - {mu0: 0, rank: 2, ndensity: 2, num_ms_combs: 3, mus: [1, 1], ns: [2, 4], ls: [2, 2], ms_combs: [0, 0, 1, -1, 2, -2], ctildes: [0.027559908420523267, 0.0049087665148102363, -0.05511981684104654, -0.0098175330296204726, 0.055119816841046554, 0.009817533029620476]}
    - {mu0: 0, rank: 2, ndensity: 2, num_ms_combs: 1, mus: [1, 1], ns: [2, 5], ls: [0, 0], ms_combs: [0, 0], ctildes: [0.1339086651441076, 0.03909654787404436]}
    - {mu0: 0, rank: 2, ndensity: 2, num_ms_combs: 2, mus: [1, 1], ns: [2, 5], ls: [1, 1], ms_combs: [0, 0, 1, -1], ctildes: [0.026267447902090325, 0.0051757993056938062, -0.052534895804180637, -0.010351598611387611]}
    - {mu0: 0, rank: 2, ndensity: 2, num_ms_combs: 1, mus: [1, 1], ns: [2, 6], ls: [0, 0], ms_combs: [0, 0], ctildes: [-0.030308243356169346, -0.012168410619732187]}
    - {mu0: 0, rank: 2, ndensity: 2, num_ms_combs: 2, mus: [1, 1], ns: [2, 6], ls: [1, 1], ms_combs: [0, 0, 1, -1], ctildes: [0.020068348802925511, 0.016203517699828928, -0.040136697605851007, -0.032407035399657849]}
    - {mu0: 0, rank: 2, ndensity: 2, num_ms_combs: 1, mus: [1, 1], ns: [3, 3], ls: [0, 0], ms_combs: [0, 0], ctildes: [0.032047203308593203, -0.0086280556332084223]}
    - {mu0: 0, rank: 2, ndensity: 2, num_ms_combs: 2, mus: [1, 1], ns: [3, 3], ls: [1, 1], ms_combs: [0, 0, 1, -1], ctildes: [0.091295517205119345, 0.02083025643327167, -0.18259103441023866, -0.041660512866543334]}
    - {mu0: 0, rank: 2, ndensity: 2, num_ms_combs: 3, mus: [1, 1], ns: [3, 3], ls: [2, 2], ms_combs: [0, 0, 1, -1, 2, -2], ctildes: [0.0033728627175045873, 0.024700354692034167, -0.0067457254350091755, -0.049400709384068341, 0.0067457254350091773, 0.049400709384068354]}
    - {mu0: 0, rank: 2, ndensity: 2, num_ms_combs: 1, mus: [1, 1], ns: [3, 4], ls: [0, 0], ms_combs: [0, 0], ctildes: [0.018158643993020588, -0.027944278382299133]}
    - {mu0: 0, rank: 2, ndensity: 2, num_ms_combs: 2, mus: [1, 1], ns: [3, 4], ls: [1, 1], ms_combs: [0, 0, 1, -1], ctildes: [-0.0032714754993478645, -0.0040296904114206274, 0.0065429509986957273, 0.0080593808228412531]}
    - {mu0: 0, rank: 2, ndensity: 2, num_ms_combs: 1, mus: [1, 1], ns: [3, 5], ls: [0, 0], ms_combs: [0, 0], ctildes: [0.062614033626103349, 0.017268092462735467]}
    - {mu0: 0, rank: 2, ndensity: 2, num_ms_combs: 2, mus: [1, 1], ns: [3, 5], ls: [1, 1], ms_combs: [0, 0, 1, -1], ctildes: [-0.015287904935916828, -0.015643535695907061, 0.030575809871833649, 0.031287071391814116]}
    - {mu0: 0, rank: 2, ndensity: 2, num_ms_combs: 1, mus: [1, 1], ns: [3, 6], ls: [0, 0], ms_combs: [0, 0], ctildes: [-0.012598080435553235, -0.015668646639570162]}
    - {mu0: 0, rank: 2, ndensity: 2, num_ms_combs: 1, mus: [1, 1], ns: [4, 4], ls: [0, 0], ms_combs: [0, 0], ctildes: [-0.016398211246168849, -0.031250994965889844]}
    - {mu0: 0, rank: 2, ndensity: 2, num_ms_combs: 2, mus: [1, 1], ns: [4, 4], ls: [1, 1], ms_combs: [0, 0, 1, -1], ctildes: [0.001323969409302129, 0.014990351841635025, -0.0026479388186042572, -0.029980703683270042]}
    - {mu0: 0, rank: 2, ndensity: 2, num_ms_combs: 1, mus: [1, 1], ns: [4, 5], ls: [0, 0], ms_combs: [0, 0], ctildes: [-0.020667819329271739, 0.025331266822749252]}
    - {mu0: 0, rank: 3, ndensity: 2, num_ms_combs: 1, mus: [0, 0, 0], ns: [1, 1, 1], ls: [0, 0, 0], ms_combs: [0, 0, 0], ctildes: [0.068286307328680532, 0.017128564959090209]}
    - {mu0: 0, rank: 3, ndensity: 2, num_ms_combs: 2, mus: [0, 0, 0], ns: [1, 1, 1], ls: [0, 1, 1], ms_combs: [0, 0, 0, 0, 1, -1], ctildes: [-0.0025756989393518259, -0.0018208688118377715, 0.00515139787870365, 0.0036417376236755421]}
    - {mu0: 0, rank: 3, ndensity: 2, num_ms_combs: 3, mus: [0, 0, 0], ns: [1, 1, 1], ls: [0, 2, 2], ms_combs: [0, 0, 0, 0, 1, -1, 0, 2, -2], ctildes: [-0.0059506497608580768, -0.0022025086104173605, 0.011901299521716155, 0.004405017220834721, -0.011901299521716157, -0.0044050172208347218]}
    - {mu0: 0, rank: 3, ndensity: 2, num_ms_combs: 4, mus: [0, 0, 0], ns: [1, 1, 1], ls: [0, 3, 3], ms_combs: [0, 0, 0, 0, 1, -1, 0, 2, -2, 0, 3, -3], ctildes: [-0.00076901997042806984, 0.00038522435178509062, 0.0015380399408561399, -0.00077044870357018136, -0.0015380399408561397, 0.00077044870357018125, 0.0015380399408561399, -0.00077044870357018136]}
    - {mu0: 0, rank: 3, ndensity: 2, num_ms_combs: 4, mus: [0, 0, 0], ns: [1, 1, 1], ls: [1, 1, 2], ms_combs: [-1, 1, 0, 0, 0, 0, 0, 1, -1, 1, 1, -2], ctildes: [-0.0019223090275883221, 5.3736825083437379e-05, -0.0019223090275883217, 5.3736825083437372e-05, 0.0066590738072625933, -0.00018614982256391047, -0.0047086762455371012, 0.00013162780185161369]}
    - {mu0: 0, rank: 3, ndensity: 2, num_ms_combs: 8, mus: [0, 0, 0], ns: [1, 1, 1], ls: [1, 2, 3], ms_combs: [0, 0, 0, 0, 1, -1, 0, 2, -2, 1, -2, 1, 1, -1, 0, 1, 0, -1, 1, 1, -2, 1, 2, -3], ctildes: [-0.0026673771607001549, -0.00011449418200956826, 0.0050296546088351981, 0.00021589230001432678, -0.0039762911019706176, -0.00017067784933441871, 0.0017782514404667701, 7.6329454673045504e-05, -0.0030800218435209884, -0.00013220649360774048, 0.0043558086635127648, 0.0001869682162938585, -0.0056233248043503058, -0.00024137492932540665, 0.0068871382142971496, 0.00029562270677379915]}
    - {mu0: 0, rank: 3, ndensity: 2, num_ms_combs: 5, mus: [0, 0, 0], ns: [1, 1, 1], ls: [2, 2, 2], ms_combs: [-2, 0, 2, -2, 1, 1, -1, -1, 2, -1, 0, 1, 0, 0, 0], ctildes: [0.00072335550782337446, 0.00018318662307933111, -0.00059061729893302415, -0.00014957125141596989, -0.00029530864946651208, -7.4785625707984946e-05, 0.00036167775391168712, 9.1593311539665527e-05, -0.0001205592513038957, -3.0531103846555171e-05]}
    - {mu0: 0, rank: 3, ndensity: 2, num_ms_combs: 9, mus: [0, 0, 0], ns: [1, 1, 1], ls: [2, 3, 3], ms_combs: [0, -3, 3, 0, -1, 1, 0, 0, 0, 1, -3, 2, 1, -2, 1, 1, -1, 0, 2, -3, 1, 2, -2, 0, 2, -1, -1], ctildes: [0.051817139957271205, 0.0065148237943449174, -0.031090283974362712, -0.0039088942766069487, 0.020726855982908476, 0.0026059295177379661, -0.1036342799145424, -0.013029647588689833, 0.080274768041044109, 0.010092721623589471, -0.029312200836383095, -0.0036853408665734112, 0.065544073640278797, 0.0082406726979161304, -0.092693317875263137, -0.011654071092470672, 0.050770221130278466, 0.0063831976241150628]}
    - {mu0: 0, rank: 3, ndensity: 2, num_ms_combs: 1, mus: [0, 0, 0], ns: [1, 1, 2], ls: [0, 0, 0], ms_combs: [0, 0, 0], ctildes: [0.044761246074138929, 0.010887108011199036]}
    - {mu0: 0, rank: 3, ndensity: 2, num_ms_combs: 2, mus: [0, 0, 0], ns: [1, 1, 2], ls: [0, 1, 1], ms_combs: [0, 0, 0, 0, 1, -1], ctildes: [0.0037709648823213921, 0.0012617949758593839, -0.0075419297646427833, -0.0025235899517187673]}
    - {mu0: 0, rank: 3, ndensity: 2, num_ms_combs: 3, mus: [0, 0, 0], ns: [1, 1, 2], ls: [0, 2, 2], ms_combs: [0, 0, 0, 0, 1, -1, 0, 2, -2], ctildes: [0.0027369467502021362, 0.0019732207327638859, -0.0054738935004042732, -0.0039464414655277728, 0.0054738935004042749, 0.0039464414655277736]}
    - {mu0: 0, rank: 3, ndensity: 2, num_ms_combs: 4, mus: [0, 0, 0], ns: [1, 1, 2], ls: [0, 3, 3], ms_combs: [0, 0, 0, 0, 1, -1, 0, 2, -2, 0, 3, -3], ctildes: [-0.0041112762872508694, -0.00089521887787063137, 0.0082225525745017406, 0.0017904377557412629, -0.0082225525745017389, -0.0017904377557412627, 0.0082225525745017406, 0.0017904377557412629]}
    - {mu0: 0, rank: 3, ndensity: 2, num_ms_combs: 2, mus: [0, 0, 0], ns: [1, 1, 2], ls: [1, 1, 0], ms_combs: [0, 0, 0, 1, -1, 0], ctildes: [-0.0027773195352811461, -0.0022464778153227206, 0.0055546390705622914, 0.0044929556306454402]}
    - {mu0: 0, rank: 3, ndensity: 2, num_ms_combs: 4, mus: [0, 0, 0], ns: [1, 1, 2], ls: [1, 1, 2], ms_combs: [-1, 1, 0, 0, 0, 0, 0, 1, -1, 1, 1, -2], ctildes: [-0.0004574651237793249, 4.6216830929554864e-05, -0.00045746512377932484, 4.6216830929554857e-05, 0.0015847056741531524, -0.00016009979866961956, -0.0011205561283784936, 0.000113207653305889]}
    - {mu0: 0, rank: 3, ndensity: 2, num_ms_combs: 5, mus: [0, 0, 0], ns: [1, 1, 2], ls: [1, 2, 1], ms_combs: [0, 0, 0, 0, 1, -1, 1, -2, 1, 1, -1, 0, 1, 0, -1], ctildes: [0.003206634225832341, -0.00011346042698959715, -0.0055540534004309087, 0.00019651922419444142, 0.0078546176450337967, -0.00027792015212281789, -0.0055540534004309087, 0.00019651922419444142, 0.0032066342258323405, -0.00011346042698959714]}
    - {mu0: 0, rank: 3, ndensity: 2, num_ms_combs: 8, mus: [0, 0, 0], ns: [1, 1, 2], ls: [1, 2, 3], ms_combs: [0, 0, 0, 0, 1, -1, 0, 2, -2, 1, -2, 1, 1, -1, 0, 1, 0, -1, 1, 1, -2, 1, 2, -3], ctildes: [0.0055978115207159793, 0.00047537757829873287, -0.010555334629606531, -0.00089638055797086136, 0.0083447247237015999, 0.00070865105337013028, -0.0037318743471439863, -0.0003169183855324886, 0.0064637959767163185, 0.00054891874559497163, -0.0091411879346848645, -0.00077628833466123566, 0.01180122287852888, 0.0010021839306660182, -0.014453487196627335, -0.0012274196292742698]}
    - {mu0: 0, rank: 3, ndensity: 2, num_ms_combs: 8, mus: [0, 0, 0], ns: [1, 1, 2], ls: [1, 3, 2], ms_combs: [0, 0, 0, 0, 1, -1, 0, 2, -2, 1, -3, 2, 1, -2, 1, 1, -1, 0, 1, 0, -1, 1, 1, -2], ctildes: [0.004342550660219921, 0.00045195696554014702, -0.0081883920519670028, -0.00085221822703448753, 0.0064734923146588944, 0.00067373766523486621, -0.011212417591395856, -0.0011669478671596197, 0.0091549006273086049, 0.00095280894365673162, -0.0070913555331500117, -0.00073804263418000046, 0.0050143455852951187, 0.00052187495143346074, -0.0028950337734799485, -0.00030130464369343147]}
    - {mu0: 0, rank: 3, ndensity: 2, num_ms_combs: 3, mus: [0, 0, 0], ns: [1, 1, 2], ls: [2, 2, 0], ms_combs: [0, 0, 0, 1, -1, 0, 2, -2, 0], ctildes: [-0.0076076325544141427, -0.0025399109793902723, 0.015215265108828287, 0.0050798219587805454, -0.015215265108828291, -0.0050798219587805463]}
    - {mu0: 0, rank: 3, ndensity: 2, num_ms_combs: 8, mus: [0, 0, 0], ns: [1, 1, 2], ls: [2, 2, 2], ms_combs: [-2, 1, 1, -2, 2, 0, -1, 1, 0, -1, 2, -1, 0, 0, 0, 0, 1, -1, 0, 2, -2, 1, 1, -2], ctildes: [-0.0010119167174481535, 2.7795585667771415e-05, 0.00082622653998002489, -2.269500066261906e-05, 0.00041311326999001244, -1.134750033130953e-05, -0.0010119167174481535, 2.7795585667771415e-05, -0.00041311326999001244, 1.134750033130953e-05, 0.00082622653998002489, -2.269500066261906e-05, 0.0016524530799600506, -4.5390001325238141e-05, -0.0010119167174481535, 2.7795585667771415e-05]}
    - {mu0: 0, rank: 3, ndensity: 2, num_ms_combs: 8, mus: [0, 0, 0], ns: [1, 1, 2], ls: [2, 3, 1], ms_combs: [0, 0, 0, 0, 1, -1, 1, -2, 1, 1, -1, 0, 1, 0, -1, 2, -3, 1, 2, -2, 0, 2, -1, -1], ctildes: [-0.0033420455364042471, -2.3745262295533584e-05, 0.0054575375075576697, 3.877585095507042e-05, -0.0070456506260243978, -5.005940832800291e-05, 0.0063018214982018018, 4.4774495973933447e-05, -0.0038590617801739571, -2.741866715660916e-05, 0.0086291244698403196, 6.1310003614618961e-05, -0.0049820273355330935, -3.5397347090917179e-05, 0.0022280303576028308, 1.5830174863689049e-05]}
    - {mu0: 0, rank: 3, ndensity: 2, num_ms_combs: 14, mus: [0, 0, 0], ns: [1, 1, 2], ls: [2, 3, 3], ms_combs: [0, 0, 0, 0, 1, -1, 0, 3, -3, 1, -3, 2, 1, -2, 1, 1, -1, 0, 1, 0, -1, 1, 1, -2, 1, 2, -3, 2, -3, 1, 2, -2, 0, 2, -1, -1, 2, 0, -2, 2, 1, -3], ctildes: [-0.0025064193264105429, -0.00010038071615323774, 0.0037596289896158139, 0.00015057107422985661, -0.0062660483160263585, -0.00025095179038309444, 0.0062660483160263576, 0.00025095179038309439, -0.0048536601549002221, -0.00019438642097093184, 0.0017723061022019129, 7.09798850923164e-05, 0.0017723061022019142, 7.0979885092316454e-05, -0.0048536601549002229, -0.00019438642097093187, 0.0062660483160263585, 0.00025095179038309444, -0.0039629969214611685, -0.00015871584810154345, 0.0056045239939732077, 0.00022445810494875078, -0.0061394484311561477, -0.0002458815345905856, 0.0056045239939732077, 0.00022445810494875081, -0.0039629969214611685, -0.00015871584810154345]}
    - {mu0: 0, rank: 3, ndensity: 2, num_ms_combs: 4, mus: [0, 0, 0], ns: [1, 1, 2], ls: [3, 3, 0], ms_combs: [0, 0, 0, 1, -1, 0, 2, -2, 0, 3, -3, 0], ctildes: [-0.0048480760774289389, 9.1281667434633138e-05, 0.0096961521548578795, -0.0001825633348692663, -0.0096961521548578778, 0.00018256333486926628, 0.0096961521548578795, -0.0001825633348692663]}
    - {mu0: 0, rank: 3, ndensity: 2, num_ms_combs: 12, mus: [0, 0, 0], ns: [1, 1, 2], ls: [3, 3, 2], ms_combs: [-3, 1, 2, -3, 2, 1, -3, 3, 0, -2, 1, 1, -2, 3, -1, -1, 1, 0, -1, 2, -1, -1, 3, -2, 0, 0, 0, 0, 1, -1, 0, 2, -2, 1, 1, -2], ctildes: [0.0096593418805526327, 0.001040749877917174, -0.015272760520400204, -0.0016455700443802233, 0.015272760520400205, 0.0016455700443802235, 0.011830229429224827, 0.0012746530753804815, -0.015272760520400204, -0.0016455700443802233, -0.0091636563122401201, -0.00098734202662813372, 0.011830229429224827, 0.0012746530753804815, 0.0096593418805526327, 0.001040749877917174, 0.0061091042081600809, 0.00065822801775208925, -0.0086395780251305367, -0.00093087498983896334, -0.027320744582151949, -0.0029436851847772219, 0.014964188095481676, 0.0016123227778962472]}
    - {mu0: 0, rank: 3, ndensity: 2, num_ms_combs: 1, mus: [0, 0, 0], ns: [1, 1, 3], ls: [0, 0, 0], ms_combs: [0, 0, 0], ctildes: [-0.0063915382547156171, 4.1459918572582307e-05]}
    - {mu0: 0, rank: 3, ndensity: 2, num_ms_combs: 2, mus: [0, 0, 0], ns: [1, 1, 3], ls: [0, 1, 1], ms_combs: [0, 0, 0, 0, 1, -1], ctildes: [0.0011020002470734404, 0.0053320516728084877, -0.0022040004941468803, -0.010664103345616972]}
    - {mu0: 0, rank: 3, ndensity: 2, num_ms_combs: 3, mus: [0, 0, 0], ns: [1, 1, 3], ls: [0, 2, 2], ms_combs: [0, 0, 0, 0, 1, -1, 0, 2, -2], ctildes: [0.0081137616028808136, 0.0040204054748920878, -0.016227523205761627, -0.0080408109497841756, 0.016227523205761631, 0.0080408109497841773]}
    - {mu0: 0, rank: 3, ndensity: 2, num_ms_combs: 4, mus: [0, 0, 0], ns: [1, 1, 3], ls: [0, 3, 3], ms_combs: [0, 0, 0, 0, 1, -1, 0, 2, -2, 0, 3, -3], ctildes: [-0.019145773303572956, -0.0079699963698935585, 0.03829154660714592, 0.015939992739787121, -0.038291546607145913, -0.015939992739787117, 0.03829154660714592, 0.015939992739787121]}
    - {mu0: 0, rank: 3, ndensity: 2, num_ms_combs: 2, mus: [0, 0, 0], ns: [1, 1, 3], ls: [1, 1, 0], ms_combs: [0, 0, 0, 1, -1, 0], ctildes: [-0.00087995302003080259, -0.00017676775177119541, 0.001759906040061605, 0.00035353550354239071]}
    - {mu0: 0, rank: 3, ndensity: 2, num_ms_combs: 4, mus: [0, 0, 0], ns: [1, 1, 3], ls: [1, 1, 2], ms_combs: [-1, 1, 0, 0, 0, 0, 0, 1, -1, 1, 1, -2], ctildes: [-0.00069504766078831855, -6.522623320104474e-05, -0.00069504766078831845, -6.5226233201044726e-05, 0.0024077157243345328, 0.00022595029978109095, -0.0017025121158464286, -0.00015977098918634272]}
    - {mu0: 0, rank: 3, ndensity: 2, num_ms_combs: 5, mus: [0, 0, 0], ns: [1, 1, 3], ls: [1, 2, 1], ms_combs: [0, 0, 0, 0, 1, -1, 1, -2, 1, 1, -1, 0, 1, 0, -1], ctildes: [0.0019348163234733172, -0.00017292210112385657, -0.0033512001755694053, 0.00029950986489808284, 0.0047393127385173496, -0.00042357091300340211, -0.0033512001755694053, 0.00029950986489808284, 0.0019348163234733169, -0.00017292210112385654]}
    - {mu0: 0, rank: 3, ndensity: 2, num_ms_combs: 8, mus: [0, 0, 0], ns: [1, 1, 3], ls: [1, 2, 3], ms_combs: [0, 0, 0, 0, 1, -1, 0, 2, -2, 1, -2, 1, 1, -1, 0, 1, 0, -1, 1, 1, -2, 1, 2, -3], ctildes: [0.00050426314124487812, 8.2395388783390694e-05, -0.00095084769780448845, -0.00015536623505930017, 0.00075171110824741674, 0.00012282779356812351, -0.00033617542749658541, -5.4930259188927134e-05, 0.00058227292068027334, 9.5141999788148974e-05, -0.00082345826142863601, -0.00013455110645169843, 0.0010630800442700064, 0.00017370473150040306, -0.0013020018320984341, -0.00021274397904157171]}
    - {mu0: 0, rank: 3, ndensity: 2, num_ms_combs: 8, mus: [0, 0, 0], ns: [1, 1, 3], ls: [1, 3, 2], ms_combs: [0, 0, 0, 0, 1, -1, 0, 2, -2, 1, -3, 2, 1, -2, 1, 1, -1, 0, 1, 0, -1, 1, 1, -2], ctildes: [0.0085846345992241571, 0.00085414549805214646, -0.016187342237653501, -0.0016105921967803571, 0.012797217683907928, 0.00127328493088001, -0.02216543122404744, -0.002205394192796003, 0.018097998809223394, 0.0018006968180157982, -0.014018649597560773, -0.001394813757548775, 0.0099126821935132878, 0.00098628226645502775, -0.0057230897328161079, -0.00056943033203476459]}
    - {mu0: 0, rank: 3, ndensity: 2, num_ms_combs: 3, mus: [0, 0, 0], ns: [1, 1, 3], ls: [2, 2, 0], ms_combs: [0, 0, 0, 1, -1, 0, 2, -2, 0], ctildes: [-0.0016841518082712111, -0.00055791509418518794, 0.0033683036165424226, 0.0011158301883703761, -0.0033683036165424235, -0.0011158301883703763]}
    - {mu0: 0, rank: 3, ndensity: 2, num_ms_combs: 8, mus: [0, 0, 0], ns: [1, 1, 3], ls: [2, 2, 2], ms_combs: [-2, 1, 1, -2, 2, 0, -1, 1, 0, -1, 2, -1, 0, 0, 0, 0, 1, -1, 0, 2, -2, 1, 1, -2], ctildes: [0.0046917908794003906, 0.00049221119484712996, -0.0038308312114583073, -0.00040188875768703224, -0.0019154156057291536, -0.00020094437884351612, 0.0046917908794003906, 0.00049221119484712996, 0.0019154156057291536, 0.00020094437884351612, -0.0038308312114583073, -0.00040188875768703224, -0.0076616624229166189, -0.00080377751537406492, 0.0046917908794003906, 0.00049221119484712996]}
    - {mu0: 0, rank: 3, ndensity: 2, num_ms_combs: 8, mus: [0, 0, 0], ns: [1, 1, 3], ls: [2, 3, 1], ms_combs: [0, 0, 0, 0, 1, -1, 1, -2, 1, 1, -1, 0, 1, 0, -1, 2, -3, 1, 2, -2, 0, 2, -1, -1], ctildes: [0.0016495060141754295, 0.00018450801930660653, -0.0026936320415879176, -0.00030130033383518205, 0.0034774640126268969, 0.00038897705838346509, -0.0031103383686171722, -0.00034791165769333307, 0.0019046854826281808, 0.00021305150922862779, -0.0042590062149136078, -0.0004763976573441356, 0.00245893838466066, 0.0002750483157089437, -0.0010996706761169526, -0.00012300534620440429]}
    - {mu0: 0, rank: 3, ndensity: 2, num_ms_combs: 4, mus: [0, 0, 0], ns: [1, 1, 3], ls: [3, 3, 0], ms_combs: [0, 0, 0, 1, -1, 0, 2, -2, 0, 3, -3, 0], ctildes: [-0.011262479720209878, -0.00067685193487234123, 0.02252495944041976, 0.0013537038697446827, -0.022524959440419757, -0.0013537038697446825, 0.02252495944041976, 0.0013537038697446827]}
    - {mu0: 0, rank: 3, ndensity: 2, num_ms_combs: 1, mus: [0, 0, 0], ns: [1, 1, 4], ls: [0, 0, 0], ms_combs: [0, 0, 0], ctildes: [0.038568593331938392, 0.015441804172761805]}
    - {mu0: 0, rank: 3, ndensity: 2, num_ms_combs: 2, mus: [0, 0, 0], ns: [1, 1, 4], ls: [0, 1, 1], ms_combs: [0, 0, 0, 0, 1, -1], ctildes: [-0.017999244555335376, -0.0040890141983230535, 0.035998489110670745, 0.0081780283966461052]}
    - {mu0: 0, rank: 3, ndensity: 2, num_ms_combs: 3, mus: [0, 0, 0], ns: [1, 1, 4], ls: [0, 2, 2], ms_combs: [0, 0, 0, 0, 1, -1, 0, 2, -2], ctildes: [0.0019884540162658283, -0.0045112403531265763, -0.0039769080325316574, 0.0090224807062531526, 0.0039769080325316583, -0.009022480706253156]}
    - {mu0: 0, rank: 3, ndensity: 2, num_ms_combs: 4, mus: [0, 0, 0], ns: [1, 1, 4], ls: [0, 3, 3], ms_combs: [0, 0, 0, 0, 1, -1, 0, 2, -2, 0, 3, -3], ctildes: [-0.0075603370207276352, -0.0022458514617810137, 0.015120674041455272, 0.0044917029235620283, -0.01512067404145527, -0.0044917029235620274, 0.015120674041455272, 0.0044917029235620283]}
    - {mu0: 0, rank: 3, ndensity: 2, num_ms_combs: 2, mus: [0, 0, 0], ns: [1, 1, 4], ls: [1, 1, 0], ms_combs: [0, 0, 0, 1, -1, 0], ctildes: [-0.0017225275455159551, 2.0887344490268666e-05, 0.0034450550910319093, -4.1774688980537326e-05]}
    - {mu0: 0, rank: 3, ndensity: 2, num_ms_combs: 4, mus: [0, 0, 0], ns: [1, 1, 4], ls: [1, 1, 2], ms_combs: [-1, 1, 0, 0, 0, 0, 0, 1, -1, 1, 1, -2], ctildes: [0.011589738676827553, 0.00099202821150268781, 0.011589738676827551, 0.00099202821150268759, -0.040148032469422834, -0.0034364865297286792, 0.028388946010426581, 0.0024299629286273754]}
    - {mu0: 0, rank: 3, ndensity: 2, num_ms_combs: 5, mus: [0, 0, 0], ns: [1, 1, 4], ls: [1, 2, 1], ms_combs: [0, 0, 0, 0, 1, -1, 1, -2, 1, 1, -1, 0, 1, 0, -1], ctildes: [-0.0065340472843832412, -0.00015276478243218101, 0.011317301875609224, 0.00026459636477974295, -0.016005081801957029, -0.00037419576762613119, 0.011317301875609224, 0.00026459636477974295, -0.0065340472843832403, -0.00015276478243218098]}
    - {mu0: 0, rank: 3, ndensity: 2, num_ms_combs: 8, mus: [0, 0, 0], ns: [1, 1, 4], ls: [1, 2, 3], ms_combs: [0, 0, 0, 0, 1, -1, 0, 2, -2, 1, -2, 1, 1, -1, 0, 1, 0, -1, 1, 1, -2, 1, 2, -3], ctildes: [-0.01575264871492003, -0.0015749628265157396, 0.029703479274585359, 0.0029697783859893643, -0.023482662234823926, -0.0023478159614162674, 0.010501765809946688, 0.0010499752176771598, -0.018189591952017387, -0.0018186104237050322, 0.025723967632575489, 0.0025719035258767379, -0.03320949941311449, -0.0033203131745909126, 0.040673164087693968, 0.0040665365319941466]}
    - {mu0: 0, rank: 3, ndensity: 2, num_ms_combs: 8, mus: [0, 0, 0], ns: [1, 1, 4], ls: [1, 3, 2], ms_combs: [0, 0, 0, 0, 1, -1, 0, 2, -2, 1, -3, 2, 1, -2, 1, 1, -1, 0, 1, 0, -1, 1, 1, -2], ctildes: [-0.01648169211069641, -0.0019683757170718716, 0.031078176685072685, 0.0037116048465718776, -0.024569455962492791, -0.0029342812724217344, 0.0425555460413636, 0.0050823242475322968, -0.034746457842285798, -0.0041497003712761974, 0.026914490512574198, 0.0032143440859406895, -0.019031418753622215, -0.0022728845002355363, 0.010987794740464279, 0.0013122504780479151]}
    - {mu0: 0, rank: 3, ndensity: 2, num_ms_combs: 3, mus: [0, 0, 0], ns: [1, 1, 4], ls: [2, 2, 0], ms_combs: [0, 0, 0, 1, -1, 0, 2, -2, 0], ctildes: [0.0016634224426694167, -0.00029159714644133225, -0.0033268448853388337, 0.00058319429288266461, 0.0033268448853388346, -0.00058319429288266472]}
    - {mu0: 0, rank: 3, ndensity: 2, num_ms_combs: 8, mus: [0, 0, 0], ns: [1, 1, 4], ls: [2, 2, 2], ms_combs: [-2, 1, 1, -2, 2, 0, -1, 1, 0, -1, 2, -1, 0, 0, 0, 0, 1, -1, 0, 2, -2, 1, 1, -2], ctildes: [0.017071444314748167, 0.0014665915705092444, -0.013938775914489941, -0.0011974670029382217, -0.0069693879572449704, -0.00059873350146911087, 0.017071444314748167, 0.0014665915705092444, 0.0069693879572449704, 0.00059873350146911087, -0.013938775914489941, -0.0011974670029382217, -0.027877551828979899, -0.0023949340058764448, 0.017071444314748167, 0.0014665915705092444]}
    - {mu0: 0, rank: 3, ndensity: 2, num_ms_combs: 8, mus: [0, 0, 0], ns: [1, 1, 4], ls: [2, 3, 1], ms_combs: [0, 0, 0, 0, 1, -1, 1, -2, 1, 1, -1, 0, 1, 0, -1, 2, -3, 1, 2, -2, 0, 2, -1, -1], ctildes: [0.00029054763246843997, -0.00025397619345203808, -0.0004744622970142534, 0.00041474138718125542, 0.0006125281915798403, -0.0005354288285119883, -0.00054786186980301495, 0.00047890210306635343, 0.00033549550763612438, -0.00029326644731458119, -0.000750190761220174, 0.00065576371171526427, 0.00043312283793403767, -0.00037860535548359586, -0.00019369842164562658, 0.00016931746230135864]}
    - {mu0: 0, rank: 3, ndensity: 2, num_ms_combs: 4, mus: [0, 0, 0], ns: [1, 1, 4], ls: [3, 3, 0], ms_combs: [0, 0, 0, 1, -1, 0, 2, -2, 0, 3, -3, 0], ctildes: [0.010130908505244948, 0.0019423149229040567, -0.020261817010489899, -0.0038846298458081142, 0.020261817010489895, 0.0038846298458081133, -0.020261817010489899, -0.0038846298458081142]}
    - {mu0: 0, rank: 3, ndensity: 2, num_ms_combs: 1, mus: [0, 0, 0], ns: [1, 2, 2], ls: [0, 0, 0], ms_combs: [0, 0, 0], ctildes: [0.00022937324461289889, 0.003395054768269983]}
    - {mu0: 0, rank: 3, ndensity: 2, num_ms_combs: 2, mus: [0, 0, 0], ns: [1, 2, 2], ls: [0, 1, 1], ms_combs: [0, 0, 0, 0, 1, -1], ctildes: [0.0079478250569050193, 0.0039997406460783279, -0.015895650113810035, -0.007999481292156654]}
    - {mu0: 0, rank: 3, ndensity: 2, num_ms_combs: 3, mus: [0, 0, 0], ns: [1, 2, 2], ls: [0, 2, 2], ms_combs: [0, 0, 0, 0, 1, -1, 0, 2, -2], ctildes: [0.001145064251041611, 0.0019291322132486237, -0.0022901285020832224, -0.0038582644264972478, 0.0022901285020832229, 0.0038582644264972487]}
    - {mu0: 0, rank: 3, ndensity: 2, num_ms_combs: 4, mus: [0, 0, 0], ns: [1, 2, 2], ls: [0, 3, 3], ms_combs: [0, 0, 0, 0, 1, -1, 0, 2, -2, 0, 3, -3], ctildes: [-0.0054259884219374482, -0.0028548553077933775, 0.010851976843874898, 0.0057097106155867558, -0.010851976843874896, -0.005709710615586755, 0.010851976843874898, 0.0057097106155867558]}
    - {mu0: 0, rank: 3, ndensity: 2, num_ms_combs: 2, mus: [0, 0, 0], ns: [1, 2, 2], ls: [1, 0, 1], ms_combs: [0, 0, 0, 1, 0, -1], ctildes: [0.0075710675529458071, 0.0022959865129612571, -0.015142135105891611, -0.0045919730259225133]}
    - {mu0: 0, rank: 3, ndensity: 2, num_ms_combs: 5, mus: [0, 0, 0], ns: [1, 2, 2], ls: [1, 1, 2], ms_combs: [0, 0, 0, 0, 1, -1, 1, -1, 0, 1, 0, -1, 1, 1, -2], ctildes: [-0.0001991551729286022, -7.2141779370089246e-06, 0.00034494687810250493, 1.2495322721741889e-05, -0.00019915517292860225, -7.2141779370089263e-06, 0.00034494687810250493, 1.2495322721741889e-05, -0.00048782855331082136, -1.7671054859316075e-05]}
    - {mu0: 0, rank: 3, ndensity: 2, num_ms_combs: 8, mus: [0, 0, 0], ns: [1, 2, 2], ls: [1, 2, 3], ms_combs: [0, 0, 0, 0, 1, -1, 0, 2, -2, 1, -2, 1, 1, -1, 0, 1, 0, -1, 1, 1, -2, 1, 2, -3], ctildes: [-0.0095422735000280784, -0.00092839525307052985, 0.017993083466150792, 0.001750598877513527, -0.014224781470638414, -0.0013839699305692164, 0.0063615156666853856, 0.00061893016871368653, -0.011018468347844488, -0.0010720184985492823, 0.015582467374100345, 0.0015160630997632374, -0.020116878877570344, -0.0019572290457275363, 0.02463804423371007, 0.0023971062358934549]}
    - {mu0: 0, rank: 3, ndensity: 2, num_ms_combs: 3, mus: [0, 0, 0], ns: [1, 2, 2], ls: [2, 0, 2], ms_combs: [0, 0, 0, 1, 0, -1, 2, 0, -2], ctildes: [-0.001138158324908442, 0.0018243816388043416, 0.0022763166498168843, -0.0036487632776086836, -0.0022763166498168848, 0.0036487632776086845]}
    - {mu0: 0, rank: 3, ndensity: 2, num_ms_combs: 4, mus: [0, 0, 0], ns: [1, 2, 2], ls: [2, 1, 1], ms_combs: [0, -1, 1, 0, 0, 0, 1, -1, 0, 2, -1, -1], ctildes: [-0.0019541671880301393, 0.00015545414010577826, -0.0019541671880301398, 0.00015545414010577829, 0.0067694337123044117, -0.00053850893782027742, -0.0047867124827632732, 0.00038078332166228295]}
    - {mu0: 0, rank: 3, ndensity: 2, num_ms_combs: 8, mus: [0, 0, 0], ns: [1, 2, 2], ls: [2, 1, 3], ms_combs: [0, 0, 0, 0, 1, -1, 1, -1, 0, 1, 0, -1, 1, 1, -2, 2, -1, -1, 2, 0, -2, 2, 1, -3], ctildes: [-0.0051394301048864428, -0.00040804336455290975, 0.0083926542171136112, 0.00066633202405539315, -0.0059345027090749094, -0.00047116789273132613, 0.0096910023429319821, 0.00076941394691609874, -0.010834870004452817, -0.00086023094407040542, 0.003426286736590962, 0.00027202890970193987, -0.0076614100534233062, -0.00060827513393868948, 0.013269951470148155, 0.0010535634369625742]}
    - {mu0: 0, rank: 3, ndensity: 2, num_ms_combs: 7, mus: [0, 0, 0], ns: [1, 2, 2], ls: [2, 2, 2], ms_combs: [0, -2, 2, 0, -1, 1, 0, 0, 0, 1, -2, 1, 1, -1, 0, 2, -2, 0, 2, -1, -1], ctildes: [-0.012327652585057415, -0.0010266385888232955, -0.0061638262925287042, -0.00051331929441164744, 0.0061638262925287042, 0.00051331929441164744, 0.030196458559692659, 0.0025147406928680586, -0.012327652585057408, -0.0010266385888232949, -0.02465530517011482, -0.0020532771776465906, 0.01509822927984633, 0.0012573703464340293]}
    - {mu0: 0, rank: 3, ndensity: 2, num_ms_combs: 4, mus: [0, 0, 0], ns: [1, 2, 2], ls: [3, 0, 3], ms_combs: [0, 0, 0, 1, 0, -1, 2, 0, -2, 3, 0, -3], ctildes: [-0.014846005653221682, -0.0025125337940464535, 0.029692011306443371, 0.0050250675880929071, -0.029692011306443365, -0.0050250675880929071, 0.029692011306443371, 0.0050250675880929071]}
    - {mu0: 0, rank: 3, ndensity: 2, num_ms_combs: 8, mus: [0, 0, 0], ns: [1, 2, 2], ls: [3, 1, 2], ms_combs: [0, 0, 0, 0, 1, -1, 1, -1, 0, 1, 0, -1, 1, 1, -2, 2, -1, -1, 2, 0, -2, 3, -1, -2], ctildes: [-0.0030306716855018415, -1.2542936305078908e-05, -0.0034995182268997313, -1.4483335304331281e-05, 0.0049490661382534462, 2.0482529215782353e-05, 0.0057146893343157775, 2.3651187512832634e-05, 0.002020447790334562, 8.3619575367192757e-06, -0.0063892169109115498, -2.6442831513643973e-05, -0.0045178586041773241, -1.8697905477070999e-05, 0.0078251606438473325, 3.2385722281407355e-05]}
    - {mu0: 0, rank: 3, ndensity: 2, num_ms_combs: 1, mus: [0, 0, 0], ns: [1, 2, 3], ls: [0, 0, 0], ms_combs: [0, 0, 0], ctildes: [-0.001752122381324613, -0.0026515480278044585]}
    - {mu0: 0, rank: 3, ndensity: 2, num_ms_combs: 2, mus: [0, 0, 0], ns: [1, 2, 3], ls: [0, 1, 1], ms_combs: [0, 0, 0, 0, 1, -1], ctildes: [-0.0044323453398879571, -0.0031532449548652393, 0.0088646906797759124, 0.0063064899097304778]}
    - {mu0: 0, rank: 3, ndensity: 2, num_ms_combs: 3, mus: [0, 0, 0], ns: [1, 2, 3], ls: [0, 2, 2], ms_combs: [0, 0, 0, 0, 1, -1, 0, 2, -2], ctildes: [-0.0019550931344710725, -0.00095707297244540155, 0.0039101862689421459, 0.0019141459448908033, -0.0039101862689421467, -0.001914145944890804]}
    - {mu0: 0, rank: 3, ndensity: 2, num_ms_combs: 4, mus: [0, 0, 0], ns: [1, 2, 3], ls: [0, 3, 3], ms_combs: [0, 0, 0, 0, 1, -1, 0, 2, -2, 0, 3, -3], ctildes: [-0.010254506931579069, -0.0031609596182022911, 0.020509013863158142, 0.006321919236404583, -0.020509013863158138, -0.0063219192364045822, 0.020509013863158142, 0.006321919236404583]}
